gru/gru_cell/kernel:0
(1, 240)
[[-1.69607103e-01 -2.64443159e-01 -1.99400395e-01 -2.18026832e-01
  -1.65143967e-01 -1.43693790e-01 -2.51038551e-01 -6.39620423e-02
  -2.32815981e-01 -4.23829198e-01 -2.96436012e-01 -2.56990016e-01
  -1.39209166e-01 -1.67024046e-01 -4.70555127e-02 -2.95497347e-02
  -5.84048152e-01 -3.12903762e-01 -2.39272133e-01 -2.21046537e-01
  -1.22973979e-01 -3.00671071e-01 -2.17754900e-01 -3.83458585e-01
  -3.30467284e-01 -3.96374315e-01  8.84531215e-02 -2.14370012e-01
  -3.85582954e-01 -3.52780223e-01 -4.89389412e-02 -1.94543347e-01
  -1.65878519e-01 -5.11533506e-02 -4.77375537e-01 -6.94506466e-02
   3.92121114e-02 -1.76438779e-01 -2.79828280e-01 -1.14994287e-01
   2.98606455e-01 -4.50275540e-01 -5.10052443e-01 -1.71444640e-01
  -3.31293702e-01 -1.79732159e-01 -3.15905482e-01 -2.47705340e-01
  -5.88320084e-02 -2.92544752e-01 -3.55605096e-01  5.06220618e-03
  -2.35737503e-01 -5.06838024e-01 -1.02017701e-01 -1.60389796e-01
  -1.60826847e-01 -1.62615657e-01 -3.49886388e-01 -3.79963160e-01
  -2.89202213e-01 -2.78179467e-01 -1.83495730e-01  4.17749137e-02
  -2.14405522e-01 -2.43419215e-01 -2.96352416e-01 -3.88987362e-01
  -2.50977725e-01 -2.64034182e-01 -9.06044990e-02 -2.09694758e-01
  -1.86647788e-01 -3.67896408e-01 -1.87050000e-01 -8.95724371e-02
  -2.69282639e-01 -3.64074737e-01 -4.52837288e-01 -2.90262938e-01
  -7.91162103e-02 -9.86740440e-02  2.51064468e-02 -1.51958447e-02
  -5.35091795e-02 -7.81121403e-02 -7.92067125e-02 -1.47870079e-01
  -1.03651218e-01  6.69100359e-02 -9.27990153e-02  3.79047560e-05
  -1.83158442e-01  3.71996164e-02 -1.39424816e-01  5.52484505e-02
  -2.09531397e-01 -9.20888111e-02 -2.20794141e-01 -1.19411238e-01
  -1.48182333e-01 -1.02779932e-01 -1.57108344e-02  1.00571759e-01
  -5.29248156e-02 -1.30146369e-01 -2.37324387e-01 -1.77034825e-01
  -5.38176484e-02 -7.53127411e-02 -7.94146955e-03 -1.01193078e-02
  -3.10603641e-02 -1.76117688e-01 -8.35676044e-02 -6.58349395e-02
  -8.32751300e-03 -1.60393655e-01 -1.31384283e-01 -2.15561822e-01
  -1.06443353e-01 -1.17098533e-01 -7.54855573e-02 -1.57390133e-01
  -6.09658659e-02 -3.85730341e-02 -5.56214480e-03  1.02316542e-02
  -3.60854328e-01 -8.65579769e-02 -6.80811331e-02 -2.89355367e-02
  -2.91252524e-01 -2.06046283e-01 -9.57961529e-02  1.67429030e-01
  -3.96666490e-02 -1.44966111e-01 -6.21091947e-02  5.27554601e-02
  -1.81986049e-01 -1.47729099e-01 -1.90510638e-02 -1.69088066e-01
  -1.55688077e-01 -8.84472951e-02 -8.56201202e-02 -1.24393441e-01
  -1.13260008e-01 -1.91371024e-01 -1.87154979e-01 -5.36585748e-02
  -1.38404667e-01  2.43316777e-02 -1.74326748e-01 -1.85434088e-01
  -5.23539297e-02 -1.78457107e-02 -5.25930300e-02 -3.55961978e-01
  -1.71236366e-01 -1.10373132e-01  1.51507333e-01 -5.92535250e-02
  -2.06609368e-01  1.85983494e-01  7.82605037e-02 -9.24571231e-02
   8.26100037e-02  1.87956050e-01 -1.12492062e-01 -1.19218193e-01
   8.15340225e-03  9.80740935e-02  9.68562290e-02  1.31935194e-01
   1.94445595e-01 -9.21636820e-02  1.57921851e-01  2.21313894e-01
   1.17826715e-01  1.12442970e-01  1.65935174e-01 -1.97372064e-01
   1.86085328e-01 -1.52392209e-01 -1.33593723e-01 -1.24805562e-01
   1.74271807e-01 -1.59643412e-01 -9.68482196e-02 -5.04293777e-02
   7.90094286e-02 -2.12737136e-02  2.03413442e-01 -9.53472331e-02
  -7.45254606e-02  1.44012094e-01  1.20296605e-01  1.14197597e-01
  -3.17375027e-02  1.45056009e-01  1.43668398e-01  1.66025043e-01
  -1.46454573e-01 -4.88469489e-02  1.15517385e-01  1.93808079e-01
  -4.59238738e-02  1.21960431e-01 -1.49852589e-01 -4.79813181e-02
  -1.13311738e-01  1.68198690e-01 -1.35429576e-01 -2.57028174e-02
   3.89862433e-02 -1.29326895e-01 -1.63065985e-01  1.75574601e-01
   1.62685737e-01 -1.68938249e-01 -1.93577006e-01  6.72903284e-02
   1.06475338e-01 -1.71244204e-01  9.18175206e-02  1.80058673e-01
  -1.91093028e-01 -8.35126117e-02 -6.42105788e-02 -1.07335731e-01
   1.13868579e-01 -2.17670768e-01 -1.76538885e-01 -4.09824662e-02
  -1.05084807e-01  1.39562890e-01 -1.68645963e-01  6.22336268e-02]]
gru/gru_cell/recurrent_kernel:0
(80, 240)
[[-0.04666038  0.05898053  0.07992891 ...  0.04043824 -0.18994258
  -0.05912335]
 [-0.06684075  0.05143253  0.12603766 ...  0.04092884  0.01001028
  -0.03726295]
 [-0.08225213 -0.07203577 -0.11071163 ... -0.03760729 -0.04193137
  -0.01947586]
 ...
 [-0.0416103  -0.07721934  0.00962799 ... -0.13342774  0.00946019
  -0.06738431]
 [ 0.07355563 -0.01708106  0.02426166 ...  0.06049123 -0.16272394
  -0.04549078]
 [ 0.02266807  0.11878139  0.05752808 ... -0.08263678  0.14067349
  -0.68045825]]
gru/gru_cell/bias:0
(2, 240)
[[-7.18302906e-01 -7.15766191e-01 -8.69776070e-01 -9.33740586e-02
  -8.90396833e-01 -8.55949640e-01 -6.10372245e-01 -5.98978221e-01
  -6.80835128e-01 -8.60820532e-01 -6.66006744e-01 -8.34722996e-01
   1.23257330e-02 -3.93124335e-02 -5.83522141e-01 -5.49338460e-01
  -1.00405145e+00 -8.24157655e-01 -7.69039392e-01 -9.79160130e-01
  -6.57867849e-01 -7.85220087e-01 -7.69079566e-01 -9.21288908e-01
  -9.00430143e-01 -9.24895883e-01 -4.26789343e-01 -7.25613594e-01
  -7.78643072e-01 -8.97876203e-01 -5.44436634e-01 -4.66509342e-01
  -4.26444948e-01  7.70565048e-02 -9.99667883e-01 -3.89628649e-01
  -2.81412989e-01 -6.42406166e-01 -7.47032762e-01 -6.37122333e-01
   1.26118556e-01 -9.86441791e-01 -9.40567672e-01 -7.05028534e-01
  -8.58264148e-01 -2.33830631e-01 -6.97220802e-01 -8.25903773e-01
  -3.11093479e-01 -7.66138256e-01 -7.22194195e-01 -3.76099497e-01
  -6.19171441e-01 -9.50917661e-01 -7.64674187e-01 -1.33002013e-01
  -1.54791459e-01 -6.23571754e-01 -9.28592563e-01 -8.41112554e-01
  -5.79050124e-01 -8.34620118e-01 -7.85768330e-01 -1.21749319e-01
  -8.41937900e-01 -8.42387080e-01 -8.76148343e-01 -9.23373759e-01
  -7.89698839e-01 -5.26579916e-01 -6.10184312e-01 -8.03048611e-01
  -8.34981978e-01 -1.00556457e+00 -8.45629930e-01 -1.83641836e-01
  -5.48591793e-01 -7.75807858e-01 -8.02991986e-01 -6.09779000e-01
  -8.66609439e-02 -1.43026680e-01 -1.04296178e-01 -5.66046406e-03
  -2.81946007e-02 -4.06681858e-02 -3.08860898e-01 -2.19340593e-01
  -2.42665544e-01 -6.68341145e-02 -1.02906533e-01 -1.36119142e-01
  -3.13547850e-01 -2.48521045e-02 -2.28949711e-01 -1.28048018e-01
  -4.28461283e-02 -1.87918678e-01 -1.01627395e-01 -1.07899653e-02
  -1.56560093e-01 -1.16814651e-01 -3.87858674e-02 -3.34883183e-02
  -2.93471087e-02 -6.98968098e-02 -1.04780719e-01 -1.85233206e-01
  -5.23806922e-02 -6.23210408e-02 -1.48137137e-01 -1.18999399e-01
  -1.75051466e-01 -8.53206217e-02 -2.42640451e-02 -2.19387248e-01
  -2.67428547e-01 -1.15902342e-01 -1.74848169e-01 -1.90781012e-01
  -2.06266046e-01 -9.85908881e-02 -9.96077955e-02 -8.44377950e-02
  -5.90939820e-02 -2.28772923e-01 -1.45893902e-01 -7.82724917e-02
  -3.10337275e-01 -1.33114159e-01 -1.03336647e-01 -3.43722701e-01
  -1.76044524e-01 -3.93073298e-02 -1.41172379e-01 -1.55103445e-01
  -2.31120020e-01 -9.13130790e-02 -1.04136348e-01 -6.00567870e-02
  -5.10866046e-02 -9.64620803e-03 -6.62334114e-02 -3.72901142e-01
  -1.41772419e-01 -6.61686286e-02 -2.58191317e-01 -5.72421625e-02
  -5.11377305e-02 -1.24842957e-01 -3.78040433e-01 -1.44448578e-01
  -1.60256132e-01 -1.45052345e-02 -4.37339209e-02 -3.56035978e-01
  -1.43309548e-01 -7.17324913e-02 -5.97980022e-02 -2.53599197e-01
   3.49446163e-02  2.36849524e-02 -3.19238231e-02  1.14897881e-02
   3.38488556e-02 -3.23153026e-02 -1.43304309e-02  1.92503948e-02
  -1.53075438e-02 -3.71395350e-02  2.21154727e-02  2.51035653e-02
   1.68515340e-04 -1.46957692e-02 -2.56382208e-02 -2.65097786e-02
  -3.42131965e-02  2.59692334e-02 -2.86939219e-02 -3.87488306e-02
  -2.27723345e-02 -1.67114902e-02 -3.46372873e-02  3.80649269e-02
  -3.35798748e-02  2.66506113e-02  2.26719473e-02  2.11814567e-02
  -3.23034041e-02  2.89427396e-02  1.66135319e-02  9.92749631e-03
  -2.14860439e-02  3.06362309e-03 -3.71014774e-02  2.19762493e-02
   1.72134805e-02 -2.96408087e-02 -2.04461329e-02 -1.77876763e-02
   4.21718741e-03 -3.43449973e-02 -2.69475244e-02 -3.38452868e-02
   2.56178509e-02  1.61476585e-03 -2.15257369e-02 -3.02516725e-02
   1.16168670e-02 -2.55609993e-02  2.58602742e-02  6.68783439e-03
   2.29278281e-02 -3.06263380e-02  2.70712879e-02 -3.41788097e-03
  -8.41775350e-03  2.94349343e-02  3.00122220e-02 -3.34644653e-02
  -3.12493406e-02  3.21224742e-02  3.48659530e-02 -8.51421710e-03
  -1.79540124e-02  2.89927144e-02 -2.26164293e-02 -3.55872698e-02
   3.23905870e-02  1.32552721e-02  1.43153528e-02  2.24813167e-02
  -2.83139218e-02  3.88407707e-02  3.25957723e-02  1.39151169e-02
   1.60942990e-02 -2.28334889e-02  3.07544675e-02 -1.28954249e-02]
 [-7.18302906e-01 -7.15766191e-01 -8.69776070e-01 -9.33740586e-02
  -8.90396833e-01 -8.55949640e-01 -6.10372245e-01 -5.98978221e-01
  -6.80835128e-01 -8.60820532e-01 -6.66006744e-01 -8.34722996e-01
   1.23257330e-02 -3.93124335e-02 -5.83522141e-01 -5.49338460e-01
  -1.00405145e+00 -8.24157655e-01 -7.69039392e-01 -9.79160130e-01
  -6.57867849e-01 -7.85220087e-01 -7.69079566e-01 -9.21288908e-01
  -9.00430143e-01 -9.24895883e-01 -4.26789343e-01 -7.25613594e-01
  -7.78643072e-01 -8.97876203e-01 -5.44436634e-01 -4.66509342e-01
  -4.26444948e-01  7.70565048e-02 -9.99667883e-01 -3.89628649e-01
  -2.81412989e-01 -6.42406166e-01 -7.47032762e-01 -6.37122333e-01
   1.26118556e-01 -9.86441791e-01 -9.40567672e-01 -7.05028534e-01
  -8.58264148e-01 -2.33830631e-01 -6.97220802e-01 -8.25903773e-01
  -3.11093479e-01 -7.66138256e-01 -7.22194195e-01 -3.76099497e-01
  -6.19171441e-01 -9.50917661e-01 -7.64674187e-01 -1.33002013e-01
  -1.54791459e-01 -6.23571754e-01 -9.28592563e-01 -8.41112554e-01
  -5.79050124e-01 -8.34620118e-01 -7.85768330e-01 -1.21749319e-01
  -8.41937900e-01 -8.42387080e-01 -8.76148343e-01 -9.23373759e-01
  -7.89698839e-01 -5.26579916e-01 -6.10184312e-01 -8.03048611e-01
  -8.34981978e-01 -1.00556457e+00 -8.45629930e-01 -1.83641836e-01
  -5.48591793e-01 -7.75807858e-01 -8.02991986e-01 -6.09779000e-01
  -8.66609439e-02 -1.43026680e-01 -1.04296178e-01 -5.66046406e-03
  -2.81946007e-02 -4.06681858e-02 -3.08860898e-01 -2.19340593e-01
  -2.42665544e-01 -6.68341145e-02 -1.02906533e-01 -1.36119142e-01
  -3.13547850e-01 -2.48521045e-02 -2.28949711e-01 -1.28048018e-01
  -4.28461283e-02 -1.87918678e-01 -1.01627395e-01 -1.07899653e-02
  -1.56560093e-01 -1.16814651e-01 -3.87858674e-02 -3.34883183e-02
  -2.93471087e-02 -6.98968098e-02 -1.04780719e-01 -1.85233206e-01
  -5.23806922e-02 -6.23210408e-02 -1.48137137e-01 -1.18999399e-01
  -1.75051466e-01 -8.53206217e-02 -2.42640451e-02 -2.19387248e-01
  -2.67428547e-01 -1.15902342e-01 -1.74848169e-01 -1.90781012e-01
  -2.06266046e-01 -9.85908881e-02 -9.96077955e-02 -8.44377950e-02
  -5.90939820e-02 -2.28772923e-01 -1.45893902e-01 -7.82724917e-02
  -3.10337275e-01 -1.33114159e-01 -1.03336647e-01 -3.43722701e-01
  -1.76044524e-01 -3.93073298e-02 -1.41172379e-01 -1.55103445e-01
  -2.31120020e-01 -9.13130790e-02 -1.04136348e-01 -6.00567870e-02
  -5.10866046e-02 -9.64620803e-03 -6.62334114e-02 -3.72901142e-01
  -1.41772419e-01 -6.61686286e-02 -2.58191317e-01 -5.72421625e-02
  -5.11377305e-02 -1.24842957e-01 -3.78040433e-01 -1.44448578e-01
  -1.60256132e-01 -1.45052345e-02 -4.37339209e-02 -3.56035978e-01
  -1.43309548e-01 -7.17324913e-02 -5.97980022e-02 -2.53599197e-01
   3.11328229e-02  1.79613829e-02 -2.64634099e-02  8.25379044e-03
   3.17034386e-02 -3.00742928e-02 -1.27526214e-02  1.60157997e-02
  -1.03215566e-02 -3.12687494e-02  1.91738307e-02  1.80729665e-02
  -5.47203049e-03 -1.10444864e-02 -1.98414214e-02 -2.04896182e-02
  -3.35915275e-02  1.94490999e-02 -2.80034784e-02 -3.88322733e-02
  -1.91557817e-02 -1.07111242e-02 -3.17335986e-02  3.40140723e-02
  -3.15471701e-02  2.45823506e-02  2.02007536e-02  1.85077246e-02
  -2.92978939e-02  2.69260369e-02  1.28796045e-02  7.55780004e-03
  -1.55547895e-02 -2.95350072e-03 -3.58821265e-02  1.75688136e-02
   1.25006251e-02 -2.69230250e-02 -1.55670568e-02 -1.47712566e-02
   9.40710492e-03 -2.89226193e-02 -2.23354343e-02 -3.06320135e-02
   2.36535985e-02  6.05440512e-03 -1.67102069e-02 -2.61506569e-02
   1.01224361e-02 -2.06052214e-02  2.06438228e-02  6.55646436e-03
   2.07938273e-02 -3.03724725e-02  2.13599950e-02  8.78633582e-04
  -1.30364979e-02  2.77728084e-02  2.49772277e-02 -2.93812007e-02
  -2.90390886e-02  3.25918160e-02  3.12861465e-02 -8.55197944e-03
  -1.39104472e-02  2.53596939e-02 -1.43924383e-02 -3.41173150e-02
   2.96694394e-02  1.08629791e-02  9.39323287e-03  1.69196967e-02
  -2.27878112e-02  3.56354192e-02  3.14875357e-02  1.81557704e-02
   1.23270620e-02 -1.88755244e-02  2.87282709e-02 -9.03588068e-03]]
gru_1/gru_cell_1/kernel:0
(80, 480)
[[-0.12506044  0.00600819  0.00586486 ...  0.03224599  0.12051093
   0.0462088 ]
 [-0.02757787  0.06137265  0.08468327 ...  0.00548997  0.12125212
   0.0606345 ]
 [-0.08950828 -0.0037949  -0.07091441 ...  0.02768863 -0.02004074
   0.06061527]
 ...
 [-0.03904742  0.10367507  0.02265827 ... -0.08574341 -0.10423914
  -0.11599056]
 [-0.07241887 -0.08232501  0.08834294 ... -0.02956263  0.02175905
  -0.01572548]
 [ 0.03003574 -0.07927473  0.01613995 ... -0.08965597 -0.0244387
   0.05670872]]
gru_1/gru_cell_1/recurrent_kernel:0
(160, 480)
[[-0.12188436  0.17227972 -0.05614786 ...  0.03214456  0.022983
   0.06444953]
 [ 0.03434173 -0.07114195 -0.00394405 ... -0.01148839 -0.05407608
  -0.06076317]
 [ 0.01333729  0.13964354  0.02094001 ... -0.00493271  0.0069897
   0.05099913]
 ...
 [ 0.0063696   0.06638391  0.09612771 ... -0.3643756   0.01637431
  -0.06747144]
 [-0.05044264  0.10608215  0.04497552 ...  0.02791059 -0.12255432
   0.0204787 ]
 [-0.00951741  0.02785278 -0.0734991  ... -0.03628612 -0.04069687
  -0.34424448]]
gru_1/gru_cell_1/bias:0
(2, 480)
[[ 4.91458535e-01  3.87964249e-01  4.11073238e-01  3.89013350e-01
   2.77736127e-01  4.56701875e-01  1.60841778e-01  4.60081726e-01
   3.46316159e-01  8.35245430e-01  1.29246473e-01  3.99493277e-01
   7.09502399e-01  5.07733583e-01  1.66748106e-01  4.67138141e-01
   7.23542154e-01  5.19328415e-01  3.09124708e-01  4.45814312e-01
   3.59311402e-01  6.65876746e-01  3.94846320e-01  3.57919902e-01
   3.25199157e-01  4.96758670e-01  3.75280708e-01  5.55030406e-01
   3.12049031e-01  4.74089175e-01  3.84093642e-01  5.00813484e-01
   7.88845569e-02  5.86243391e-01  3.31963211e-01  8.03013027e-01
   4.61320400e-01  2.63493538e-01  2.97019929e-01  7.08374083e-01
   4.82620001e-01  2.56110609e-01  5.77563882e-01  3.64039183e-01
   8.42595160e-01  7.48321772e-01  7.27451444e-01  2.84499913e-01
   3.45744759e-01  4.44387287e-01  3.49206507e-01  5.80744028e-01
   6.00946724e-01  2.57730931e-01  3.84810269e-01  4.62711841e-01
   3.34665030e-01  2.80566454e-01  6.59342110e-01  6.09732628e-01
   4.22117949e-01  3.83270919e-01  5.34563720e-01  2.79606313e-01
   2.42719799e-01  4.70016241e-01  3.20254862e-01  7.52221048e-01
   7.38390028e-01  4.52785790e-01  3.32445890e-01  6.15302026e-01
   4.13144320e-01  5.35312653e-01  2.86755294e-01  4.58480686e-01
   3.58575612e-01  3.93694073e-01 -1.08989246e-01  3.42461616e-01
   3.63007456e-01  5.64177334e-01  3.74635339e-01  5.16592085e-01
   1.67240471e-01  4.10002023e-01  2.75185972e-01  3.19501132e-01
   2.89779127e-01  2.58713782e-01  3.95724297e-01  4.02613193e-01
   4.99151826e-01  4.62840050e-01  5.50043762e-01  3.35778892e-01
   3.93378556e-01  4.13370520e-01  2.60872781e-01  3.83997440e-01
   6.42342508e-01  3.50410253e-01  6.07037172e-02  1.87184021e-01
   4.92021412e-01  4.64947253e-01  3.25389266e-01  3.36876899e-01
   4.17304605e-01  2.74914652e-01 -2.72843502e-02  3.20315689e-01
   3.38252664e-01  5.79695106e-01  6.33929729e-01  4.04875875e-01
   2.71287471e-01  4.37015444e-01  6.44418240e-01  5.17950475e-01
   2.13651597e-01  3.53077054e-01  2.96581715e-01  6.11528218e-01
   5.82222939e-01  5.91713428e-01  4.92703617e-01  4.29763734e-01
   5.38919091e-01 -6.31411001e-02  3.93344790e-01  8.06498408e-01
   7.05703139e-01  4.90032077e-01  5.90381026e-01  4.44828600e-01
   3.80090803e-01  3.46367836e-01  5.14535248e-01  4.39756632e-01
   6.24934316e-01  3.03821713e-01  3.98303449e-01  3.64297867e-01
   3.66443604e-01  2.45945379e-01  8.73099744e-01  2.22606468e-03
   2.80378878e-01  4.78746712e-01  3.12824458e-01  4.17494595e-01
   4.62498397e-01  5.86273789e-01  3.65625441e-01  4.02310878e-01
   6.06480479e-01  3.70951056e-01  6.27519190e-01  3.70569438e-01
  -2.13208809e-01 -2.84187794e-01 -4.17429864e-01 -2.72867888e-01
  -3.93015146e-01 -2.18484968e-01 -3.90250742e-01 -2.15470359e-01
  -4.58061397e-01 -1.34336084e-01 -1.65769204e-01 -3.33836138e-01
  -3.00867766e-01 -2.71814317e-01 -2.30185434e-01 -2.82825500e-01
  -2.01853842e-01 -3.88639927e-01 -3.88731152e-01 -1.94765165e-01
  -3.72987062e-01 -2.02612594e-01 -2.97538757e-01 -3.35614413e-01
  -5.04504561e-01 -4.01297837e-01 -3.72588247e-01 -2.88220823e-01
  -3.42202544e-01 -2.73060679e-01 -4.38590020e-01 -4.72499341e-01
  -1.51835337e-01 -1.64263353e-01 -2.70027548e-01 -1.91889405e-01
  -4.15414959e-01 -4.70412821e-01 -3.42357069e-01 -1.57077104e-01
  -3.56337368e-01 -3.47584128e-01 -4.53981698e-01 -3.62013996e-01
  -1.06520846e-01 -1.47912994e-01 -2.57932842e-01 -3.93349916e-01
  -3.85628730e-01 -2.05017194e-01 -3.11367065e-01 -2.73902982e-01
  -4.20385391e-01 -2.30703905e-01 -4.07658458e-01 -4.22117501e-01
  -1.75793171e-01 -3.51630270e-01 -2.41384953e-01 -2.20625028e-01
  -5.08244574e-01 -5.19603908e-01 -2.13003904e-01 -3.85357112e-01
  -3.48541081e-01 -1.91646799e-01 -4.10746664e-01 -1.22795396e-01
  -2.30374426e-01 -4.45847422e-01 -5.40524423e-01 -2.27797225e-01
  -5.70814073e-01 -2.72411615e-01 -3.98113430e-01 -1.56216159e-01
  -4.74675149e-01 -3.08597893e-01 -1.01250038e-01 -4.49165761e-01
  -4.72445160e-01 -4.02285933e-01 -4.54915673e-01 -4.44705188e-01
  -3.88484687e-01 -2.52685308e-01 -4.02442306e-01 -4.40324515e-01
  -3.99300635e-01 -3.63280773e-01 -4.80165094e-01 -2.77678192e-01
  -1.97305948e-01 -2.14178726e-01 -2.33005702e-01 -4.59693819e-01
  -3.35780829e-01 -3.57815206e-01 -4.42936927e-01 -2.55324930e-01
  -2.95043439e-01 -3.72880906e-01 -2.04108149e-01 -4.41209733e-01
  -5.08229494e-01 -2.63577521e-01 -4.72837359e-01 -4.11164343e-01
  -1.67440578e-01 -4.02994066e-01 -1.28287330e-01 -3.14473480e-01
  -3.72141510e-01 -2.86072254e-01 -1.78518713e-01 -3.66406232e-01
  -4.22172785e-01 -3.44283193e-01 -1.68806881e-01 -2.77511477e-01
  -3.25954288e-01 -3.70464146e-01 -1.72455177e-01 -3.40780079e-01
  -2.92654425e-01 -1.56802103e-01 -5.60942531e-01 -4.04047996e-01
  -3.84930730e-01 -7.86033943e-02 -5.07221818e-01 -2.24144399e-01
  -1.39908865e-01 -2.60844707e-01 -4.45725322e-01 -3.40565473e-01
  -4.80852038e-01 -4.59525168e-01 -2.12896407e-01 -2.84762710e-01
  -2.08674729e-01 -5.07019341e-01 -3.29510540e-01 -3.23779196e-01
  -3.41943324e-01 -2.78200090e-01 -1.44495726e-01 -1.30030185e-01
  -4.29251492e-01 -3.04438919e-01 -2.51812220e-01 -2.70225286e-01
  -2.98325539e-01 -1.95521027e-01 -3.12787771e-01 -3.68372947e-01
  -1.36024445e-01 -4.47302788e-01 -2.01158151e-01 -3.13340724e-01
   1.25611958e-03  5.98589890e-03  7.62475282e-03 -1.20306388e-03
   6.35815272e-03  3.26323207e-03 -8.75249971e-03  6.72509382e-03
   4.73310647e-04 -9.37745254e-03 -1.03921548e-03  5.50423225e-04
   2.15615216e-03 -4.28428175e-03  5.68847172e-03  4.47749021e-03
   3.98749998e-03  3.04951827e-04 -1.13599235e-02 -5.96168917e-03
  -7.36928894e-04 -1.53664406e-03 -4.43435070e-04 -1.18924966e-02
  -2.43928656e-03 -8.89147414e-05  1.99049315e-03  7.05326383e-04
  -6.76953874e-04 -2.45924899e-03 -8.76689050e-03  2.04906007e-03
  -1.30040653e-03  3.04410374e-03  8.90819996e-04  3.99979996e-03
  -5.87911950e-03 -8.65958445e-03  2.42302520e-03  5.38617419e-03
   1.12403529e-02  3.67753906e-03 -4.73772408e-04  5.02086757e-03
  -8.51989724e-03 -5.08365408e-03  7.09945569e-03 -4.81721340e-03
  -6.22554542e-03 -3.16217681e-03 -2.31392871e-04  5.22894273e-03
  -1.46137294e-03 -5.73564204e-04 -1.67343800e-03  7.99176004e-03
   4.16059047e-03  1.04272645e-02  2.89962743e-03  4.39629517e-03
   6.54619373e-03  1.09709054e-03 -3.02411197e-03  3.79029778e-03
  -4.30898229e-03 -5.51693188e-03  1.35692550e-04 -2.60347500e-03
  -2.60746945e-03 -1.72347878e-03 -6.04660157e-03 -1.16351526e-04
  -6.76280772e-03  4.25552775e-04  5.86888660e-03  5.16724214e-03
  -1.18580402e-03 -3.00825341e-03 -8.77887243e-04 -6.88897329e-04
   1.30672371e-02 -1.45839981e-03  1.29793189e-03 -5.88805042e-03
  -9.62117687e-03 -3.44267488e-03  4.51834779e-03 -4.43814229e-03
  -1.43840024e-02  1.00241089e-02 -6.84269471e-03  1.85740925e-03
   3.43970605e-03 -6.99290913e-03 -9.37581807e-03  4.69172280e-03
  -1.12389093e-02  2.60486896e-03 -5.84909692e-03 -4.71046148e-03
  -3.35666910e-03  6.32980512e-03  1.10819247e-02  1.36926305e-04
  -9.24876149e-05 -1.22994091e-03 -5.65834902e-03  5.51657891e-03
  -3.29048280e-03  3.85028846e-03 -2.03305413e-03 -3.70516395e-03
   3.75521462e-03 -5.40834852e-03  4.27564548e-04  5.14020538e-03
   6.29185233e-03  3.45481862e-03  3.88819771e-03 -4.28896106e-04
   6.68540876e-03 -4.65793163e-03 -7.33130961e-04  2.98962626e-03
  -2.89731403e-03  1.78201741e-03  3.14253452e-03  1.35457620e-03
   1.79778109e-03  1.22639788e-02  9.63793416e-03  1.85432623e-03
  -8.22413806e-03 -1.20926350e-02 -1.27713103e-03  2.96305981e-04
  -7.85292126e-04 -1.86443736e-03  6.75566378e-04 -8.86950525e-04
   2.11922848e-03  2.47872854e-03 -6.94589550e-03 -2.14845501e-03
  -3.06817517e-03  5.84778748e-03  4.45769727e-03 -5.78263123e-03
   3.36187356e-03 -2.83113541e-03  4.25812555e-03  1.48006191e-03
   1.25102978e-03 -1.02672935e-03 -2.79096467e-03  2.10479950e-03
  -3.78585013e-04  3.03834188e-03  2.01418367e-03 -6.90107699e-03]
 [ 4.91458535e-01  3.87964249e-01  4.11073238e-01  3.89013350e-01
   2.77736127e-01  4.56701875e-01  1.60841778e-01  4.60081726e-01
   3.46316159e-01  8.35245430e-01  1.29246473e-01  3.99493277e-01
   7.09502399e-01  5.07733583e-01  1.66748106e-01  4.67138141e-01
   7.23542154e-01  5.19328415e-01  3.09124708e-01  4.45814312e-01
   3.59311402e-01  6.65876746e-01  3.94846320e-01  3.57919902e-01
   3.25199157e-01  4.96758670e-01  3.75280708e-01  5.55030406e-01
   3.12049031e-01  4.74089175e-01  3.84093642e-01  5.00813484e-01
   7.88845569e-02  5.86243391e-01  3.31963211e-01  8.03013027e-01
   4.61320400e-01  2.63493538e-01  2.97019929e-01  7.08374083e-01
   4.82620001e-01  2.56110609e-01  5.77563882e-01  3.64039183e-01
   8.42595160e-01  7.48321772e-01  7.27451444e-01  2.84499913e-01
   3.45744759e-01  4.44387287e-01  3.49206507e-01  5.80744028e-01
   6.00946724e-01  2.57730931e-01  3.84810269e-01  4.62711841e-01
   3.34665030e-01  2.80566454e-01  6.59342110e-01  6.09732628e-01
   4.22117949e-01  3.83270919e-01  5.34563720e-01  2.79606313e-01
   2.42719799e-01  4.70016241e-01  3.20254862e-01  7.52221048e-01
   7.38390028e-01  4.52785790e-01  3.32445890e-01  6.15302026e-01
   4.13144320e-01  5.35312653e-01  2.86755294e-01  4.58480686e-01
   3.58575612e-01  3.93694073e-01 -1.08989246e-01  3.42461616e-01
   3.63007456e-01  5.64177334e-01  3.74635339e-01  5.16592085e-01
   1.67240471e-01  4.10002023e-01  2.75185972e-01  3.19501132e-01
   2.89779127e-01  2.58713782e-01  3.95724297e-01  4.02613193e-01
   4.99151826e-01  4.62840050e-01  5.50043762e-01  3.35778892e-01
   3.93378556e-01  4.13370520e-01  2.60872781e-01  3.83997440e-01
   6.42342508e-01  3.50410253e-01  6.07037172e-02  1.87184021e-01
   4.92021412e-01  4.64947253e-01  3.25389266e-01  3.36876899e-01
   4.17304605e-01  2.74914652e-01 -2.72843502e-02  3.20315689e-01
   3.38252664e-01  5.79695106e-01  6.33929729e-01  4.04875875e-01
   2.71287471e-01  4.37015444e-01  6.44418240e-01  5.17950475e-01
   2.13651597e-01  3.53077054e-01  2.96581715e-01  6.11528218e-01
   5.82222939e-01  5.91713428e-01  4.92703617e-01  4.29763734e-01
   5.38919091e-01 -6.31411001e-02  3.93344790e-01  8.06498408e-01
   7.05703139e-01  4.90032077e-01  5.90381026e-01  4.44828600e-01
   3.80090803e-01  3.46367836e-01  5.14535248e-01  4.39756632e-01
   6.24934316e-01  3.03821713e-01  3.98303449e-01  3.64297867e-01
   3.66443604e-01  2.45945379e-01  8.73099744e-01  2.22606468e-03
   2.80378878e-01  4.78746712e-01  3.12824458e-01  4.17494595e-01
   4.62498397e-01  5.86273789e-01  3.65625441e-01  4.02310878e-01
   6.06480479e-01  3.70951056e-01  6.27519190e-01  3.70569438e-01
  -2.13208809e-01 -2.84187794e-01 -4.17429864e-01 -2.72867888e-01
  -3.93015146e-01 -2.18484968e-01 -3.90250742e-01 -2.15470359e-01
  -4.58061397e-01 -1.34336084e-01 -1.65769204e-01 -3.33836138e-01
  -3.00867766e-01 -2.71814317e-01 -2.30185434e-01 -2.82825500e-01
  -2.01853842e-01 -3.88639927e-01 -3.88731152e-01 -1.94765165e-01
  -3.72987062e-01 -2.02612594e-01 -2.97538757e-01 -3.35614413e-01
  -5.04504561e-01 -4.01297837e-01 -3.72588247e-01 -2.88220823e-01
  -3.42202544e-01 -2.73060679e-01 -4.38590020e-01 -4.72499341e-01
  -1.51835337e-01 -1.64263353e-01 -2.70027548e-01 -1.91889405e-01
  -4.15414959e-01 -4.70412821e-01 -3.42357069e-01 -1.57077104e-01
  -3.56337368e-01 -3.47584128e-01 -4.53981698e-01 -3.62013996e-01
  -1.06520846e-01 -1.47912994e-01 -2.57932842e-01 -3.93349916e-01
  -3.85628730e-01 -2.05017194e-01 -3.11367065e-01 -2.73902982e-01
  -4.20385391e-01 -2.30703905e-01 -4.07658458e-01 -4.22117501e-01
  -1.75793171e-01 -3.51630270e-01 -2.41384953e-01 -2.20625028e-01
  -5.08244574e-01 -5.19603908e-01 -2.13003904e-01 -3.85357112e-01
  -3.48541081e-01 -1.91646799e-01 -4.10746664e-01 -1.22795396e-01
  -2.30374426e-01 -4.45847422e-01 -5.40524423e-01 -2.27797225e-01
  -5.70814073e-01 -2.72411615e-01 -3.98113430e-01 -1.56216159e-01
  -4.74675149e-01 -3.08597893e-01 -1.01250038e-01 -4.49165761e-01
  -4.72445160e-01 -4.02285933e-01 -4.54915673e-01 -4.44705188e-01
  -3.88484687e-01 -2.52685308e-01 -4.02442306e-01 -4.40324515e-01
  -3.99300635e-01 -3.63280773e-01 -4.80165094e-01 -2.77678192e-01
  -1.97305948e-01 -2.14178726e-01 -2.33005702e-01 -4.59693819e-01
  -3.35780829e-01 -3.57815206e-01 -4.42936927e-01 -2.55324930e-01
  -2.95043439e-01 -3.72880906e-01 -2.04108149e-01 -4.41209733e-01
  -5.08229494e-01 -2.63577521e-01 -4.72837359e-01 -4.11164343e-01
  -1.67440578e-01 -4.02994066e-01 -1.28287330e-01 -3.14473480e-01
  -3.72141510e-01 -2.86072254e-01 -1.78518713e-01 -3.66406232e-01
  -4.22172785e-01 -3.44283193e-01 -1.68806881e-01 -2.77511477e-01
  -3.25954288e-01 -3.70464146e-01 -1.72455177e-01 -3.40780079e-01
  -2.92654425e-01 -1.56802103e-01 -5.60942531e-01 -4.04047996e-01
  -3.84930730e-01 -7.86033943e-02 -5.07221818e-01 -2.24144399e-01
  -1.39908865e-01 -2.60844707e-01 -4.45725322e-01 -3.40565473e-01
  -4.80852038e-01 -4.59525168e-01 -2.12896407e-01 -2.84762710e-01
  -2.08674729e-01 -5.07019341e-01 -3.29510540e-01 -3.23779196e-01
  -3.41943324e-01 -2.78200090e-01 -1.44495726e-01 -1.30030185e-01
  -4.29251492e-01 -3.04438919e-01 -2.51812220e-01 -2.70225286e-01
  -2.98325539e-01 -1.95521027e-01 -3.12787771e-01 -3.68372947e-01
  -1.36024445e-01 -4.47302788e-01 -2.01158151e-01 -3.13340724e-01
  -4.23454773e-03  1.12546505e-02  1.19406672e-03  1.17556108e-02
   1.89399160e-03 -1.35319000e-02 -1.23808421e-02 -5.56609128e-04
  -6.84166932e-03 -1.33825298e-02  9.72636417e-03  9.47087910e-03
   9.75888502e-03 -1.34372385e-02 -4.45905188e-03 -2.29565147e-03
   1.05833719e-02 -4.39146115e-03 -1.13519039e-02 -1.13590416e-02
   5.40161645e-03 -6.79211877e-03 -7.89128616e-03 -4.06159740e-03
  -5.05616469e-03  1.11335469e-02  5.23632392e-03 -5.17043611e-03
   7.09685963e-03  5.92397712e-03 -1.26923779e-02  4.12837043e-03
  -1.53960856e-02  8.19579884e-03  8.02873634e-03  8.38676561e-03
   4.59344534e-04 -4.85711545e-03  8.81098863e-03  9.84276738e-03
   1.46054141e-02  1.27836375e-03 -6.13187952e-03 -3.66381602e-03
  -1.34215271e-02 -1.08731939e-02  1.31321466e-02 -7.14343833e-03
  -1.02397066e-03 -8.92520417e-03  6.34404132e-03  1.13501605e-02
  -5.60399750e-03 -1.44907786e-02 -3.69703141e-03 -3.59223573e-03
  -1.55775517e-03  1.92508660e-02  1.05198482e-02  1.24458261e-02
   9.32328962e-03 -7.35624111e-04 -8.93556979e-03  3.30145843e-03
   5.17260097e-03  1.28247426e-04  1.83205050e-03 -7.07070064e-03
  -7.79905776e-03 -2.62780930e-03 -6.32530963e-03 -6.32000435e-03
  -1.62914890e-04  6.17481582e-03  2.83170096e-03  9.02534183e-03
  -4.97815711e-03  3.29142483e-03  9.56695061e-03  1.20507774e-03
   8.01699888e-03 -6.82226848e-03 -4.28391388e-03 -2.73574224e-05
  -1.83479637e-02 -9.40593798e-03 -3.34277225e-04 -6.58805761e-03
   2.24880059e-05  1.21521030e-03 -9.02164169e-03  1.04070632e-02
   9.55801457e-03 -1.24006011e-02 -1.43259102e-02 -3.42967245e-03
  -2.21984228e-03  9.73754935e-03 -2.91224266e-03  2.87275063e-03
  -1.17713772e-02 -5.23189025e-04  6.94389455e-04  1.81760581e-03
  -3.26904934e-04 -9.25802253e-03 -5.82419895e-03 -3.29263275e-05
  -9.94836539e-03  5.44721493e-03  1.01641882e-02  5.38508594e-03
   9.61213559e-03 -1.23009114e-02  6.11793995e-03  9.43067949e-03
  -3.03406082e-03 -4.82768146e-03  9.27104522e-03  6.69990061e-03
  -2.37683230e-03 -5.81212062e-03 -1.62872225e-02  1.01141594e-02
   6.04860345e-03  7.39836227e-03 -9.77779040e-04  7.70165492e-03
   8.12922604e-04 -4.80602961e-03  1.08056404e-02  7.30719976e-03
  -1.32187149e-02 -7.44364574e-04  4.62147966e-03 -2.44822237e-04
  -5.76751772e-03 -8.58011469e-03  6.13232190e-03 -6.15221588e-03
  -4.98231500e-03 -1.90943084e-03 -1.27960220e-02 -6.35374011e-03
   4.42048255e-03 -8.51468241e-04  7.06033688e-03  5.28961467e-03
   4.57522832e-03  3.88813065e-03 -1.29166730e-02  7.95809366e-03
   8.16003513e-03  5.34526538e-03 -9.61506367e-03 -3.48728406e-03
   4.72496171e-03 -4.04121995e-04 -4.17479733e-03  2.22274655e-04]]
dense/kernel:0
(160, 1)
[[-0.04964673]
 [ 0.07077312]
 [-0.05796071]
 [-0.03958156]
 [-0.04542847]
 [ 0.0441026 ]
 [-0.05894912]
 [-0.06438003]
 [-0.04860295]
 [-0.0694109 ]
 [-0.04041318]
 [ 0.04901326]
 [ 0.07101607]
 [-0.06209539]
 [ 0.04091201]
 [-0.05028344]
 [ 0.0665043 ]
 [-0.06464469]
 [-0.06144384]
 [-0.06601881]
 [ 0.05101043]
 [-0.06101684]
 [-0.05849779]
 [ 0.05699459]
 [ 0.04000535]
 [ 0.05437922]
 [ 0.06183525]
 [-0.06452961]
 [ 0.05079291]
 [ 0.05327525]
 [-0.07352939]
 [ 0.06268495]
 [ 0.03495963]
 [ 0.05792442]
 [ 0.05820309]
 [ 0.05963793]
 [-0.07725614]
 [ 0.03977931]
 [ 0.04902589]
 [ 0.06543086]
 [ 0.06054517]
 [ 0.05477345]
 [-0.06581924]
 [-0.03952284]
 [-0.0669773 ]
 [-0.06312248]
 [ 0.06953029]
 [-0.04984178]
 [ 0.04158365]
 [-0.06823928]
 [ 0.05224147]
 [ 0.04549911]
 [-0.06639358]
 [ 0.04646609]
 [ 0.0586112 ]
 [-0.05117517]
 [-0.03586545]
 [ 0.03672069]
 [ 0.04879935]
 [ 0.05869334]
 [ 0.0570877 ]
 [-0.04669479]
 [-0.0511719 ]
 [-0.04639966]
 [-0.04062537]
 [ 0.03791271]
 [-0.04597207]
 [-0.04883742]
 [-0.04802495]
 [-0.04787662]
 [ 0.05123195]
 [-0.05326289]
 [-0.08059289]
 [ 0.04767908]
 [ 0.04733901]
 [ 0.05055186]
 [-0.04973245]
 [ 0.05942863]
 [-0.05425839]
 [ 0.03980494]
 [ 0.06178657]
 [-0.06239847]
 [ 0.04661917]
 [ 0.04599522]
 [-0.05242265]
 [-0.07499118]
 [-0.0443748 ]
 [-0.05793696]
 [-0.07168426]
 [ 0.05762472]
 [-0.04784705]
 [ 0.05226359]
 [ 0.06677584]
 [-0.07312366]
 [-0.07894997]
 [-0.03733069]
 [ 0.03874781]
 [-0.03870222]
 [-0.05458921]
 [ 0.05499607]
 [-0.05648516]
 [ 0.05136257]
 [ 0.03705987]
 [ 0.04291969]
 [-0.05539279]
 [-0.06308504]
 [-0.07457403]
 [-0.05132315]
 [-0.0624041 ]
 [-0.05748342]
 [-0.03137862]
 [-0.04826157]
 [ 0.06454017]
 [-0.05820429]
 [ 0.05658423]
 [-0.03920807]
 [ 0.05461975]
 [-0.04299478]
 [ 0.06367059]
 [ 0.05760397]
 [ 0.04248264]
 [-0.06589913]
 [ 0.05274281]
 [ 0.05456363]
 [ 0.06302048]
 [ 0.04141014]
 [-0.05367041]
 [ 0.03934315]
 [-0.05113356]
 [ 0.05374902]
 [ 0.06339673]
 [ 0.0436946 ]
 [-0.06881042]
 [-0.05136023]
 [ 0.06208955]
 [ 0.0457861 ]
 [-0.05398182]
 [-0.0794246 ]
 [ 0.04978255]
 [-0.06221646]
 [-0.04615322]
 [-0.03930584]
 [-0.05556304]
 [-0.05105973]
 [ 0.05823999]
 [-0.0300757 ]
 [ 0.06361083]
 [-0.04523097]
 [ 0.03844615]
 [ 0.04267045]
 [ 0.04705191]
 [ 0.05625843]
 [ 0.05792936]
 [ 0.06198017]
 [-0.06506763]
 [-0.06209346]
 [ 0.04889972]
 [-0.06193977]
 [-0.05478862]
 [-0.04118557]]
dense/bias:0
(1,)
[0.2433061]
