gru/gru_cell/kernel:0
(1, 60)
[[-0.24795248 -0.95645815 -0.4292768  -1.106549   -0.5312781  -0.45908675
  -0.74740976 -0.38583702 -0.8161109  -0.8891423  -0.81821024 -0.827365
  -1.1955454  -1.0561606  -0.33195126 -0.54621744 -0.8899202  -0.8053991
  -0.24151663  0.07673477  0.15426008 -0.2908921   0.14201938  0.02676759
  -0.07553636 -0.1965565   0.14753725 -0.05712086 -0.42426184  0.08395615
   0.19595206 -0.1543573  -0.194178   -0.394656   -0.2024123  -0.12200221
  -0.10574038  0.0920299   0.11747266  0.11615833  0.2123836  -0.1586351
  -0.25801483  0.22160615  0.13640359 -0.21835731 -0.21280664  0.17061524
   0.13643607  0.0984861  -0.2242904   0.15320419 -0.22924988 -0.14004047
   0.21750376 -0.23469736 -0.28327423  0.24926312 -0.05800927  0.02097412]]
gru/gru_cell/recurrent_kernel:0
(20, 60)
[[-0.4209453  -0.25870404 -0.35353914 ... -0.14454211 -0.0939109
   0.15396811]
 [ 0.02733932  0.40872416  0.08532953 ...  0.11451884  0.17651759
  -0.26292953]
 [ 0.0291725   0.12830515  0.2835548  ...  0.00955972  0.2497361
  -0.05043586]
 ...
 [-0.19737099 -0.3951574  -0.39333138 ... -0.03242471 -0.31827047
   0.26146632]
 [ 0.09186421  0.11391191  0.17615597 ...  0.24819931 -0.2056924
  -0.06972142]
 [-0.38654676 -0.56416756 -0.2837377  ... -0.07706203 -0.04723197
  -0.23826595]]
gru/gru_cell/bias:0
(2, 60)
[[-8.2576042e-01 -1.3022850e+00 -1.1444237e+00 -1.4189628e+00
  -1.1763524e+00 -1.2394632e+00 -1.2925167e+00 -1.1124060e+00
  -1.4418757e+00 -1.0733724e+00 -1.2332379e+00 -1.3830492e+00
  -1.4397389e+00 -1.2884243e+00 -9.0702081e-01 -1.4178817e+00
  -1.2146556e+00 -1.3335915e+00 -7.5919950e-01 -3.0750093e-01
  -7.5576445e-03 -1.5957259e-01  2.9834213e-02  7.5280048e-02
  -2.4764507e-01  3.2428443e-02  6.2108003e-05 -7.9377778e-02
  -1.8807840e-01 -1.9681171e-01 -2.8298760e-02 -1.8163842e-01
   5.0939970e-02 -1.8684565e-01 -1.8501751e-02  6.5263830e-02
   7.2028004e-02  3.4238432e-02 -2.7043303e-02  2.0614717e-02
  -4.4039764e-02  2.3203095e-02  4.1764282e-02 -3.6092531e-02
  -2.2026682e-02  3.7579980e-02  3.8556788e-02 -3.3486895e-02
  -2.1429196e-02 -1.8905900e-02  4.0271413e-02 -3.6488913e-02
   3.8450655e-02  2.2774851e-02 -3.6380541e-02  3.9767105e-02
   5.2770872e-02 -4.3813091e-02  6.4809527e-03 -1.0603811e-02]
 [-8.2576042e-01 -1.3022850e+00 -1.1444237e+00 -1.4189628e+00
  -1.1763524e+00 -1.2394632e+00 -1.2925167e+00 -1.1124060e+00
  -1.4418757e+00 -1.0733724e+00 -1.2332379e+00 -1.3830492e+00
  -1.4397389e+00 -1.2884243e+00 -9.0702081e-01 -1.4178817e+00
  -1.2146556e+00 -1.3335915e+00 -7.5919950e-01 -3.0750093e-01
  -7.5576445e-03 -1.5957259e-01  2.9834213e-02  7.5280048e-02
  -2.4764507e-01  3.2428443e-02  6.2108003e-05 -7.9377778e-02
  -1.8807840e-01 -1.9681171e-01 -2.8298760e-02 -1.8163842e-01
   5.0939970e-02 -1.8684565e-01 -1.8501751e-02  6.5263830e-02
   7.2028004e-02  3.4238432e-02 -2.7043303e-02  2.0614717e-02
  -3.7004292e-02  2.2421140e-02  3.7471872e-02 -3.3139139e-02
  -1.7358059e-02  3.7073046e-02  2.9888226e-02 -2.8118806e-02
  -2.5400190e-02 -2.0186536e-02  3.6590818e-02 -2.9372472e-02
   3.7337679e-02  2.0754775e-02 -3.1179091e-02  3.7230417e-02
   4.8388433e-02 -4.2782791e-02  1.0569895e-02 -1.3384943e-02]]
gru_1/gru_cell_1/kernel:0
(20, 60)
[[-0.06008628  0.00660548 -0.05171401 ... -0.01655743 -0.20088704
  -0.03422425]
 [-0.20705988  0.10876672 -0.15319438 ...  0.04475796  0.12158574
   0.00521252]
 [-0.04605706  0.07998992  0.07203561 ... -0.02913495  0.23076355
   0.06546383]
 ...
 [ 0.12569533 -0.03431519 -0.06908394 ... -0.08793055 -0.0922616
  -0.13400328]
 [-0.31676593 -0.02052177  0.0957727  ...  0.17321594 -0.00909247
  -0.05355242]
 [ 0.35787562 -0.03126794  0.1740003  ... -0.02932757  0.00659906
   0.01613423]]
gru_1/gru_cell_1/recurrent_kernel:0
(20, 60)
[[-0.25268048 -0.1271432  -0.46727216 ... -0.13213453 -0.07426839
  -0.0343857 ]
 [-0.0469386   0.04662485  0.12157166 ... -0.20420869  0.09941523
  -0.07530968]
 [ 0.11752173  0.17421627 -0.14802201 ... -0.00795716  0.0742621
   0.09167235]
 ...
 [ 0.03353706  0.06472751 -0.12758912 ... -0.01798532  0.03044725
  -0.00219423]
 [-0.26220104  0.01336936 -0.13345475 ...  0.17445722 -0.17766435
  -0.10165241]
 [ 0.0548293   0.20518616 -0.15701662 ... -0.01128531  0.15760173
   0.01590806]]
gru_1/gru_cell_1/bias:0
(2, 60)
[[ 3.58977705e-01  3.35067183e-01  5.53494573e-01  3.33247066e-01
   3.54179859e-01  4.96559381e-01  4.14726764e-01  5.35140753e-01
   5.22679627e-01  3.80666614e-01  5.21627963e-01  1.66371718e-01
   3.89683187e-01  4.51455086e-01  4.46619600e-01  4.28166807e-01
   4.33165133e-01  6.11443102e-01  3.81956756e-01  4.14719552e-01
  -8.63720700e-02  7.66570959e-03 -5.62920570e-01  2.49674427e-03
  -1.15442410e-01 -3.84083629e-01 -1.12217836e-01 -1.79347694e-01
  -9.09694657e-02 -9.29708406e-02 -7.78906405e-01  4.91891196e-03
   6.44264091e-03 -5.13739437e-02 -1.65310442e-01 -6.66447505e-02
  -1.56203121e-01 -2.35002071e-01 -2.20276982e-01 -2.78556406e-01
   3.28850979e-03 -5.56296622e-03 -4.43497580e-03  1.94018870e-03
  -5.63950278e-04  2.13552639e-03 -1.98601134e-04 -3.41445277e-03
  -3.30442190e-03 -4.34244657e-03 -1.98622607e-03  1.30880729e-03
  -3.46601097e-04  1.31258776e-03  1.55573618e-03 -8.02622270e-03
   3.22258193e-03 -6.18750090e-03 -6.97043585e-03  4.43664705e-03]
 [ 3.58977705e-01  3.35067183e-01  5.53494573e-01  3.33247066e-01
   3.54179859e-01  4.96559381e-01  4.14726764e-01  5.35140753e-01
   5.22679627e-01  3.80666614e-01  5.21627963e-01  1.66371718e-01
   3.89683187e-01  4.51455086e-01  4.46619600e-01  4.28166807e-01
   4.33165133e-01  6.11443102e-01  3.81956756e-01  4.14719552e-01
  -8.63720700e-02  7.66570959e-03 -5.62920570e-01  2.49674427e-03
  -1.15442410e-01 -3.84083629e-01 -1.12217836e-01 -1.79347694e-01
  -9.09694657e-02 -9.29708406e-02 -7.78906405e-01  4.91891196e-03
   6.44264091e-03 -5.13739437e-02 -1.65310442e-01 -6.66447505e-02
  -1.56203121e-01 -2.35002071e-01 -2.20276982e-01 -2.78556406e-01
   9.91841499e-03 -9.95556638e-03  4.33273194e-03  5.58192004e-03
   4.82348958e-03 -8.33811006e-04  5.44191385e-03  6.69898419e-03
  -7.73712527e-04  6.56788982e-03  8.01064423e-04 -3.39891249e-03
  -3.41427047e-03  6.95369672e-03  1.27365126e-03  4.77580936e-04
  -5.35647431e-03  5.51398564e-03  7.79329799e-03  1.15588252e-02]]
dense/kernel:0
(20, 1)
[[-0.1519028 ]
 [ 0.11853378]
 [-0.1625814 ]
 [-0.06879012]
 [-0.14632829]
 [ 0.09794918]
 [-0.15322627]
 [-0.17153457]
 [-0.11692121]
 [-0.11247174]
 [-0.17682205]
 [ 0.08949406]
 [ 0.10131503]
 [-0.12001053]
 [ 0.09238107]
 [-0.13691463]
 [ 0.13117807]
 [-0.18472365]
 [-0.1818116 ]
 [-0.18559916]]
dense/bias:0
(1,)
[0.24937794]
