gru/gru_cell/kernel:0
(1, 120)
[[-0.38008705 -0.9448739  -0.6281064  -0.49782628 -0.5014074   0.20736532
  -0.5645816  -0.42725223 -0.6142417  -0.9507804  -0.5854759  -0.5827809
  -0.22276615 -0.503118   -0.61691    -0.5710785  -0.9066479  -0.78759354
  -0.58194304 -0.5120939  -0.5452212  -0.7672542  -0.5950866  -0.6683678
  -0.13160548 -0.03278238 -0.35006848  0.05097689 -0.04768388  0.08363669
  -0.63345534 -0.7241495  -0.8635872  -0.85767674 -0.75473726 -0.9124806
  -0.72115964 -0.65246356 -0.7893316   0.14633884  0.05710787 -0.21113038
  -0.24642883 -0.02457266 -0.0467366  -0.01491839 -0.16673963 -0.0415815
  -0.07505227  0.01011542 -0.20267479  0.05186969 -0.27232    -0.25665975
   0.10650482 -0.21101862 -0.24842314  0.16145267  0.00974256 -0.09916269
  -0.27782625 -0.0207289   0.01342919 -0.13164076 -0.14065716  0.2432755
   0.07348227  0.18277456 -0.0172041  -0.04867037 -0.04399703  0.05246208
   0.05505188 -0.0661129  -0.093941   -0.1849394  -0.25898665 -0.22308272
  -0.33061296 -0.06396291  0.10766297  0.15990686  0.23982032 -0.08395964
  -0.12886538 -0.007721    0.17264853  0.11510735  0.156448    0.24805735
  -0.12381251  0.21314819  0.04912929  0.1254608   0.17483422  0.26631325
  -0.2469518   0.20465702 -0.2100135  -0.18064064 -0.18200697  0.15581097
   0.16542546  0.24118619 -0.0793947   0.01777192 -0.21498542  0.02257464
   0.00165409  0.0050527   0.18095142  0.12166492  0.21144308 -0.18845487
  -0.13131884  0.20027195  0.22296514 -0.14865206  0.14958936  0.0437789 ]]
gru/gru_cell/recurrent_kernel:0
(40, 120)
[[-0.26011232 -0.1511645  -0.1404647  ...  0.11792798 -0.11770451
   0.2304559 ]
 [-0.15507196 -0.2119637  -0.14894788 ... -0.05284631 -0.11958066
  -0.07971466]
 [-0.14913279 -0.07700223 -0.32385817 ... -0.07196862  0.05210941
   0.03942446]
 ...
 [-0.02314358  0.10611114  0.25512907 ... -0.22464195 -0.09752576
  -0.02765316]
 [-0.24636936 -0.23499186 -0.31121    ...  0.21604702 -0.19655524
  -0.06181175]
 [-0.07419087 -0.00842762 -0.08221842 ...  0.0928489  -0.13301153
  -0.15438287]]
gru/gru_cell/bias:0
(2, 120)
[[-1.1326332  -1.5958321  -1.4875882  -0.7853558  -1.2952085   0.06487662
  -1.077737   -1.3317034  -1.2787336  -1.3884813  -1.1864704  -1.217474
  -0.23391744 -0.78253525 -1.5416145  -1.4578059  -1.4312028  -1.3954078
  -1.2546374  -1.1981767  -1.3629899  -1.3148668  -1.4027371  -1.3186648
  -0.6094368   0.06955101 -0.9138369  -0.0304148   0.1672525   0.14107576
  -1.4832268  -1.4338269  -1.4069226  -1.168451   -1.3717116  -1.6117359
  -1.2232045  -1.4102656  -1.419312    0.03409037 -0.24013652 -0.05605566
   0.02871096 -0.2864119  -0.06936486  0.03443016 -0.06404682 -0.11452215
  -0.0796257   0.02252878 -0.09069032  0.02605954 -0.16910374 -0.24184285
  -0.03813945  0.02937448  0.02810893 -0.00973123 -0.00462892 -0.03290115
  -0.02385734 -0.09014593 -0.04929667  0.02782525 -0.25455475 -0.012466
   0.02741487  0.01608582  0.04539803  0.0410023  -0.05686071 -0.13696074
  -0.05139028 -0.01473115 -0.13210636 -0.01874973 -0.01900582 -0.09272802
  -0.11835682  0.00196156 -0.02498542 -0.02564985 -0.04103269  0.00956117
   0.0232979  -0.00287802 -0.03180247 -0.02587297 -0.03048625 -0.04201335
   0.02395506 -0.03601753 -0.00844358 -0.02572597 -0.03015187 -0.04390377
   0.04103847 -0.03513196  0.0369055   0.02917949  0.02981257 -0.02650961
  -0.02382779 -0.03935071  0.01965153 -0.00433602  0.03274749 -0.0048294
   0.00800829 -0.00226752 -0.03416573 -0.02351789 -0.03368163  0.03068875
   0.0274583  -0.03189932 -0.03492811  0.02641772 -0.02534461 -0.00527281]
 [-1.1326332  -1.5958321  -1.4875882  -0.7853558  -1.2952085   0.06487662
  -1.077737   -1.3317034  -1.2787336  -1.3884813  -1.1864704  -1.217474
  -0.23391744 -0.78253525 -1.5416145  -1.4578059  -1.4312028  -1.3954078
  -1.2546374  -1.1981767  -1.3629899  -1.3148668  -1.4027371  -1.3186648
  -0.6094368   0.06955101 -0.9138369  -0.0304148   0.1672525   0.14107576
  -1.4832268  -1.4338269  -1.4069226  -1.168451   -1.3717116  -1.6117359
  -1.2232045  -1.4102656  -1.419312    0.03409037 -0.24013652 -0.05605566
   0.02871096 -0.2864119  -0.06936486  0.03443016 -0.06404682 -0.11452215
  -0.0796257   0.02252878 -0.09069032  0.02605954 -0.16910374 -0.24184285
  -0.03813945  0.02937448  0.02810893 -0.00973123 -0.00462892 -0.03290115
  -0.02385734 -0.09014593 -0.04929667  0.02782525 -0.25455475 -0.012466
   0.02741487  0.01608582  0.04539803  0.0410023  -0.05686071 -0.13696074
  -0.05139028 -0.01473115 -0.13210636 -0.01874973 -0.01900582 -0.09272802
  -0.11835682  0.00196156 -0.01563765 -0.02443668 -0.04254958  0.00652782
   0.01901697 -0.00648296 -0.02978694 -0.02063727 -0.02753022 -0.04024143
   0.02224284 -0.03334439 -0.01390735 -0.02423071 -0.02207811 -0.04400218
   0.04224898 -0.03083842  0.03411007  0.02757557  0.03011961 -0.01893238
  -0.01784781 -0.03972956  0.02238984 -0.00775581  0.03118214 -0.00536598
   0.00451335 -0.00552233 -0.02986993 -0.01511725 -0.02987048  0.0299024
   0.02103689 -0.03294804 -0.03517246  0.02436737 -0.02515799 -0.007457  ]]
gru_1/gru_cell_1/kernel:0
(40, 240)
[[-0.02276267 -0.03604659 -0.06683162 ...  0.16905732 -0.04543053
   0.06409755]
 [ 0.06353514  0.16639492 -0.20041549 ...  0.05720324  0.00255031
   0.15067571]
 [ 0.18443766  0.19482128  0.22094302 ...  0.00793158 -0.06779219
   0.15613624]
 ...
 [-0.21514165 -0.12069338  0.10728741 ...  0.05100809 -0.01031968
  -0.03653593]
 [-0.02190619 -0.12248606  0.0446078  ... -0.01863559 -0.18923134
   0.11450668]
 [ 0.16453178 -0.12963016 -0.14435732 ...  0.16868389 -0.05466289
  -0.08355957]]
gru_1/gru_cell_1/recurrent_kernel:0
(80, 240)
[[-0.14564942 -0.03902956  0.19786252 ... -0.06227705  0.02552667
  -0.03444716]
 [ 0.00218375 -0.0375068  -0.16188094 ... -0.16360465 -0.01348719
  -0.15618806]
 [ 0.04578014 -0.05931327  0.1298178  ... -0.00755424 -0.03349533
   0.03205371]
 ...
 [ 0.07914673  0.06240552 -0.15684609 ... -0.27672753 -0.0230562
  -0.15069366]
 [-0.05637472  0.02542594  0.16957523 ... -0.05753681  0.00091807
  -0.00625987]
 [ 0.15686029  0.03864375 -0.09101347 ...  0.02948121  0.11383226
  -0.12170477]]
gru_1/gru_cell_1/bias:0
(2, 240)
[[ 3.8551715e-01  3.2492939e-01  1.8879938e-01  6.1429554e-01
   1.4131163e-01  4.9789134e-01  5.7568187e-01  3.8811022e-01
   2.3895764e-01  5.9416962e-01  2.5041822e-01  4.5999554e-01
   5.4850930e-01  2.7443147e-01  1.7964199e-01  4.7905222e-01
  -1.3809910e-03  3.0335104e-01  4.3558592e-01  6.5044636e-01
   4.5396745e-01  4.8577219e-01  3.8616678e-01  3.4442085e-01
   3.6117041e-01  5.3486484e-01  3.8304567e-01  2.7286023e-01
   3.0796862e-01  4.9697736e-01  3.3930004e-01  3.5043937e-01
   5.5825436e-01  6.5399706e-01  4.0469599e-01  4.7678927e-01
   3.0992645e-01  6.1969590e-01  3.5080221e-01  2.6511315e-01
   6.2621838e-01  5.4553348e-01  4.3054017e-01  4.0026981e-01
   2.6025578e-01  4.1034484e-01  3.8619667e-01  6.7276096e-01
   2.8449693e-01  2.9635200e-01  2.9303375e-01  3.9133832e-01
   2.0665541e-01  4.1293517e-01  2.5105074e-01  3.6339799e-01
   2.2043593e-01  2.6547712e-01 -3.3263374e-02  5.2261019e-01
   4.3699425e-01  3.9664891e-01  4.4235024e-01  5.2533269e-01
   3.9934659e-01  4.5845485e-01  4.5522723e-01  4.4588178e-01
   3.1898171e-01  6.0804164e-01  3.5986137e-01  5.2380544e-01
   3.6320257e-01  4.4292423e-01  4.1597363e-01  3.3092853e-01
   5.8213836e-01  3.6254281e-01  3.8663265e-01  2.0916130e-01
  -4.3638143e-01 -3.4620553e-01 -3.7525356e-01 -2.2315960e-01
  -3.0664137e-01 -2.9863399e-01 -2.6605713e-01 -1.9390000e-01
  -3.6919957e-01 -2.3467213e-01 -2.1997537e-01 -4.5861769e-01
  -2.7723587e-01 -4.0610221e-01 -1.7556895e-01 -4.7254986e-01
   6.8755224e-03 -4.9176231e-01 -2.8957209e-01 -1.7518328e-01
  -2.8964990e-01 -1.7110547e-01 -1.7318662e-01 -4.3015894e-01
  -5.0013083e-01 -1.0564977e-01 -3.6509007e-01 -3.5689014e-01
  -4.7152531e-01 -2.8587741e-01 -4.3198949e-01 -3.2089147e-01
  -3.4721482e-01 -1.3122067e-01 -2.1231373e-01 -2.4398784e-01
  -2.7653363e-01 -2.9691109e-01 -3.3426064e-01 -3.7681362e-01
  -2.1154523e-01 -2.2174965e-01 -2.7010453e-01 -2.8318000e-01
  -1.9898728e-01 -3.2793295e-01 -3.8984975e-01 -2.3222962e-01
  -3.7251198e-01 -2.4618639e-01 -3.1228569e-01 -3.8824520e-01
  -4.1805214e-01 -4.6225983e-01 -4.4022161e-01 -4.9196166e-01
  -5.6487209e-01 -3.2978538e-01 -5.0605193e-02 -1.9428132e-01
  -3.9939219e-01 -2.3485361e-01 -2.5713658e-01 -1.9278763e-01
  -3.7339234e-01 -1.5271866e-01 -3.0157745e-01 -3.3991617e-01
  -4.2110971e-01 -1.3399833e-01 -2.4122302e-01 -1.9687472e-01
  -3.6572248e-01 -1.6246052e-01 -4.7494164e-01 -2.5760677e-01
  -1.9081990e-01 -2.0652989e-01 -3.6638254e-01 -2.2044478e-01
  -5.8886488e-03 -2.8033441e-04 -6.6413851e-03  3.1490766e-03
  -8.1613604e-03 -6.1132754e-03  1.0230752e-03 -1.6391082e-03
   9.2736920e-03  3.8578531e-03 -8.9082085e-03 -7.6331309e-04
   9.2951301e-04 -7.0155482e-04  3.9215367e-03  1.6021059e-03
   7.3624002e-03  4.7838539e-04  5.5257031e-03 -3.0816705e-03
   1.7472559e-03  4.3991138e-05 -3.1915281e-04 -8.2496763e-04
   3.8741156e-03  2.2880270e-03  3.1264981e-03 -3.6351851e-03
  -1.7311862e-03  1.3844613e-03 -1.9269771e-03 -1.3059883e-03
  -1.6607766e-03  8.7229483e-04  4.4462942e-03 -4.9941521e-03
   7.5957533e-03 -9.9276053e-04  8.8562886e-04  3.2163935e-03
  -1.1026470e-03 -1.0793644e-03  2.6652706e-03 -4.1553942e-03
   5.5932770e-03 -1.3611574e-03 -5.0215949e-03  1.9021999e-03
   8.1995974e-04  4.3807477e-03  6.9062049e-03 -5.0053857e-03
   4.6183555e-03  9.6298364e-04 -3.0301844e-03 -6.3050358e-04
   1.2424100e-03  4.5908256e-03 -7.8460285e-03 -1.6894508e-03
  -1.1378411e-03 -6.5715886e-03  2.5629161e-03  1.4103893e-03
  -2.7275274e-03 -1.7147362e-03  5.3787804e-03 -2.8718936e-03
  -4.8123435e-03  8.0227794e-04  2.4030104e-03 -1.4941354e-04
   2.7759108e-03  2.9508519e-04  7.9631619e-03 -5.1263869e-03
   6.9870788e-04  4.2501036e-03  6.9632049e-05 -5.8554549e-05]
 [ 3.8551715e-01  3.2492939e-01  1.8879938e-01  6.1429554e-01
   1.4131163e-01  4.9789134e-01  5.7568187e-01  3.8811022e-01
   2.3895764e-01  5.9416962e-01  2.5041822e-01  4.5999554e-01
   5.4850930e-01  2.7443147e-01  1.7964199e-01  4.7905222e-01
  -1.3809910e-03  3.0335104e-01  4.3558592e-01  6.5044636e-01
   4.5396745e-01  4.8577219e-01  3.8616678e-01  3.4442085e-01
   3.6117041e-01  5.3486484e-01  3.8304567e-01  2.7286023e-01
   3.0796862e-01  4.9697736e-01  3.3930004e-01  3.5043937e-01
   5.5825436e-01  6.5399706e-01  4.0469599e-01  4.7678927e-01
   3.0992645e-01  6.1969590e-01  3.5080221e-01  2.6511315e-01
   6.2621838e-01  5.4553348e-01  4.3054017e-01  4.0026981e-01
   2.6025578e-01  4.1034484e-01  3.8619667e-01  6.7276096e-01
   2.8449693e-01  2.9635200e-01  2.9303375e-01  3.9133832e-01
   2.0665541e-01  4.1293517e-01  2.5105074e-01  3.6339799e-01
   2.2043593e-01  2.6547712e-01 -3.3263374e-02  5.2261019e-01
   4.3699425e-01  3.9664891e-01  4.4235024e-01  5.2533269e-01
   3.9934659e-01  4.5845485e-01  4.5522723e-01  4.4588178e-01
   3.1898171e-01  6.0804164e-01  3.5986137e-01  5.2380544e-01
   3.6320257e-01  4.4292423e-01  4.1597363e-01  3.3092853e-01
   5.8213836e-01  3.6254281e-01  3.8663265e-01  2.0916130e-01
  -4.3638143e-01 -3.4620553e-01 -3.7525356e-01 -2.2315960e-01
  -3.0664137e-01 -2.9863399e-01 -2.6605713e-01 -1.9390000e-01
  -3.6919957e-01 -2.3467213e-01 -2.1997537e-01 -4.5861769e-01
  -2.7723587e-01 -4.0610221e-01 -1.7556895e-01 -4.7254986e-01
   6.8755224e-03 -4.9176231e-01 -2.8957209e-01 -1.7518328e-01
  -2.8964990e-01 -1.7110547e-01 -1.7318662e-01 -4.3015894e-01
  -5.0013083e-01 -1.0564977e-01 -3.6509007e-01 -3.5689014e-01
  -4.7152531e-01 -2.8587741e-01 -4.3198949e-01 -3.2089147e-01
  -3.4721482e-01 -1.3122067e-01 -2.1231373e-01 -2.4398784e-01
  -2.7653363e-01 -2.9691109e-01 -3.3426064e-01 -3.7681362e-01
  -2.1154523e-01 -2.2174965e-01 -2.7010453e-01 -2.8318000e-01
  -1.9898728e-01 -3.2793295e-01 -3.8984975e-01 -2.3222962e-01
  -3.7251198e-01 -2.4618639e-01 -3.1228569e-01 -3.8824520e-01
  -4.1805214e-01 -4.6225983e-01 -4.4022161e-01 -4.9196166e-01
  -5.6487209e-01 -3.2978538e-01 -5.0605193e-02 -1.9428132e-01
  -3.9939219e-01 -2.3485361e-01 -2.5713658e-01 -1.9278763e-01
  -3.7339234e-01 -1.5271866e-01 -3.0157745e-01 -3.3991617e-01
  -4.2110971e-01 -1.3399833e-01 -2.4122302e-01 -1.9687472e-01
  -3.6572248e-01 -1.6246052e-01 -4.7494164e-01 -2.5760677e-01
  -1.9081990e-01 -2.0652989e-01 -3.6638254e-01 -2.2044478e-01
  -3.8077618e-04  3.9941897e-03  8.4512495e-04 -2.2899508e-03
   1.4032526e-03 -7.4499613e-03 -4.1189855e-03 -6.2705027e-03
   1.1800046e-02 -7.8784861e-04  1.9589742e-03  3.3819228e-03
   5.9128786e-03 -3.7823156e-03 -5.9719551e-03 -2.9789396e-03
  -2.7932876e-03 -3.2430505e-03 -3.0676648e-04 -6.9950684e-03
  -2.5107851e-03 -2.3710320e-03 -4.8580710e-03  4.6805819e-03
   4.5093703e-03  5.8990372e-03  9.3658371e-03  2.8719622e-04
   2.2160902e-03 -6.8611940e-03  8.2459359e-04  4.7309995e-03
   3.0254100e-03  4.8780516e-03  8.5345348e-03 -1.3576613e-03
   2.2778863e-03  4.0461700e-03  2.9622123e-03 -3.4349295e-03
   2.1790056e-03  4.0420536e-03 -4.0010279e-03 -7.3702163e-03
   1.6178593e-02 -5.9023872e-03  2.2592414e-03 -2.1395828e-03
  -7.0678093e-03 -3.6642042e-03  3.4341712e-03 -1.5626221e-04
   5.4518380e-03  3.5837174e-03  3.2575545e-04 -7.0687933e-03
  -1.4611541e-03  1.6485311e-03 -1.6999254e-02  3.4204032e-03
  -1.5390901e-03  3.2726999e-03 -2.6350019e-03 -3.5130652e-03
  -3.8163341e-03  1.5129345e-03  6.9075899e-04 -6.0293865e-03
  -8.0608465e-03 -2.2533308e-03 -7.6302420e-03 -5.1177596e-03
   1.3644204e-02  4.2267251e-03  3.9724726e-03 -5.2597094e-04
  -3.2798515e-03  8.4844064e-03 -2.5520038e-03  5.1364703e-03]]
dense/kernel:0
(80, 1)
[[-0.11042479]
 [ 0.10026588]
 [-0.10050064]
 [-0.07952699]
 [-0.08418392]
 [ 0.07494825]
 [-0.09197833]
 [-0.11633542]
 [-0.08465797]
 [-0.08173741]
 [-0.08945305]
 [ 0.08195294]
 [ 0.08906329]
 [-0.09374537]
 [ 0.07793406]
 [-0.10137519]
 [ 0.0957139 ]
 [-0.12712583]
 [-0.10508393]
 [-0.1357886 ]
 [ 0.08906188]
 [-0.11224611]
 [-0.10338172]
 [ 0.08998181]
 [ 0.08116187]
 [ 0.12268803]
 [ 0.10819741]
 [-0.09449834]
 [ 0.1066877 ]
 [ 0.10989963]
 [-0.11489449]
 [ 0.09476564]
 [ 0.07538108]
 [ 0.10506664]
 [ 0.12582952]
 [ 0.08684843]
 [-0.10150776]
 [ 0.07254494]
 [ 0.09754409]
 [ 0.1166949 ]
 [ 0.09632131]
 [ 0.11761899]
 [-0.10918158]
 [-0.09508533]
 [-0.09008328]
 [-0.10654914]
 [ 0.0807567 ]
 [-0.07202414]
 [ 0.08820371]
 [-0.09485146]
 [ 0.09879465]
 [ 0.07969449]
 [-0.10118722]
 [ 0.0818903 ]
 [ 0.10878388]
 [-0.06990658]
 [-0.12909661]
 [ 0.07237707]
 [ 0.07753916]
 [ 0.10676719]
 [ 0.09102218]
 [-0.07574964]
 [-0.08621943]
 [-0.09875058]
 [-0.09105025]
 [ 0.09981193]
 [-0.08876022]
 [-0.10838728]
 [ 0.07769533]
 [-0.10677634]
 [ 0.08480708]
 [-0.11986869]
 [-0.11228074]
 [ 0.10152338]
 [ 0.10038323]
 [ 0.11568203]
 [-0.09683706]
 [ 0.10191057]
 [-0.07607151]
 [ 0.11125399]]
dense/bias:0
(1,)
[0.24764183]
