gru/gru_cell/kernel:0
(1, 60)
[[-0.79194176 -0.5494592  -0.7738421  -1.4012574  -0.95022917 -0.8773098
   0.18972678 -0.8833758  -0.95659924 -0.32361862 -0.38716027 -0.931994
  -1.4476838  -1.1488297  -0.77090305 -0.8599326  -1.4017601  -1.0973638
  -0.22323489 -0.93703556  0.121658    0.01457529  0.09067243 -0.08916958
  -0.04511399 -0.2373184   0.42306918 -0.09021508 -0.37935543  0.13987842
   0.46320248  0.0716107  -0.22112171 -0.51459014 -0.26438323 -0.16242014
  -0.1542943   0.08360565  0.09187724 -0.15524049  0.30941716 -0.17970005
  -0.32997236  0.24332942  0.19598898 -0.2644014  -0.08238363  0.22660294
   0.1768056   0.08921929 -0.24587771  0.25166807 -0.2736666  -0.20101778
   0.35063457 -0.2687731  -0.36050394  0.31837448 -0.09481514 -0.18622646]]
gru/gru_cell/recurrent_kernel:0
(20, 60)
[[-0.5891743  -0.10734987 -0.46971065 ... -0.10149416 -0.1117059
   0.07034114]
 [ 0.24027614  0.24412686  0.23362803 ...  0.02953524  0.20132445
  -0.14139584]
 [ 0.28107578  0.06825449  0.46099687 ...  0.04785044  0.31025997
   0.13996355]
 ...
 [-0.35686424 -0.28805044 -0.5089065  ...  0.09935234 -0.3159501
   0.15544622]
 [ 0.0847379  -0.16473277  0.04616899 ...  0.1502005  -0.123492
  -0.04402332]
 [ 0.19542187 -0.08197527  0.35006258 ...  0.4073196  -0.08931899
  -0.19315691]]
gru/gru_cell/bias:0
(2, 60)
[[-1.839223   -0.75610167 -1.8475492  -1.9386293  -1.9977676  -2.0414443
   0.5588412  -2.0869348  -2.012045   -0.05661785 -0.5848098  -1.8258054
  -2.0506938  -1.6720183  -1.8528125  -2.028736   -2.1684477  -1.8992256
  -0.5779531  -2.0691411   0.05183198 -0.07547791  0.05094226 -0.02289385
  -0.03240471  0.03360062  0.2121322   0.00667184 -0.07033283  0.09548835
   0.13905655  0.03076517  0.04028848 -0.16272269  0.05287543  0.02984043
   0.07083053  0.04445901  0.01069421 -0.10282016 -0.05561979  0.02783733
   0.05349997 -0.04184352 -0.03258106  0.04074581  0.01031526 -0.03778272
  -0.03197382 -0.00969233  0.03820717 -0.04309868  0.0449038   0.03156255
  -0.05407328  0.04330152  0.06208319 -0.05249897  0.01329524  0.03531625]
 [-1.839223   -0.75610167 -1.8475492  -1.9386293  -1.9977676  -2.0414443
   0.5588412  -2.0869348  -2.012045   -0.05661785 -0.5848098  -1.8258054
  -2.0506938  -1.6720183  -1.8528125  -2.028736   -2.1684477  -1.8992256
  -0.5779531  -2.0691411   0.05183198 -0.07547791  0.05094226 -0.02289385
  -0.03240471  0.03360062  0.2121322   0.00667184 -0.07033283  0.09548835
   0.13905655  0.03076517  0.04028848 -0.16272269  0.05287543  0.02984043
   0.07083053  0.04445901  0.01069421 -0.10282016 -0.04870848  0.0315189
   0.04734091 -0.04038673 -0.02811907  0.04287339  0.01715196 -0.03533989
  -0.03942773 -0.01004997  0.04007756 -0.03863218  0.0450609   0.03698844
  -0.05577226  0.04253528  0.06105806 -0.05076585  0.01480679  0.0326908 ]]
gru_1/gru_cell_1/kernel:0
(20, 60)
[[-0.02584023 -0.30419058 -0.06792182 ...  0.12466624 -0.11061138
   0.13018233]
 [-0.17771538  0.1987908  -0.03402923 ... -0.08073763  0.07311846
   0.00574019]
 [-0.1273877  -0.20017177  0.10264625 ... -0.15364015  0.15347773
  -0.13874978]
 ...
 [ 0.2857558  -0.0293735  -0.2975608  ...  0.01844954  0.18081877
  -0.21163425]
 [-0.3166888  -0.32782865  0.02600544 ...  0.23973922 -0.11797022
  -0.17132081]
 [ 0.26884878 -0.08209471  0.190229   ...  0.01949842  0.05767313
   0.09214441]]
gru_1/gru_cell_1/recurrent_kernel:0
(20, 60)
[[-0.16562138 -0.0976491  -0.35797217 ... -0.07912941 -0.28076676
   0.03173132]
 [-0.17720465 -0.20651777  0.1237713  ... -0.12313504  0.05552404
  -0.1441878 ]
 [ 0.09427387  0.15371239  0.00301549 ... -0.08315382  0.04038024
  -0.01083373]
 ...
 [ 0.08827135 -0.02740801  0.00562114 ... -0.07032332 -0.0304025
   0.02536482]
 [-0.0993719   0.0520659  -0.03723599 ... -0.08188131 -0.3265711
  -0.09856784]
 [ 0.11846449  0.10908293 -0.02876159 ... -0.04533183  0.03722414
   0.02462675]]
gru_1/gru_cell_1/bias:0
(2, 60)
[[ 9.06255990e-02 -3.06199074e-01 -1.50376428e-02 -5.03645957e-01
   1.22583956e-02 -1.45534635e-01 -1.07086144e-01  1.46627590e-01
   4.66835588e-01  3.27293314e-02 -3.22017729e-01 -3.51380318e-01
  -2.62797028e-01  4.02461737e-02 -1.46436729e-02 -3.86348993e-01
   1.84313357e-01  1.13550268e-01  4.94549647e-02 -1.69570714e-01
  -1.44466847e-01 -2.79550552e-01 -1.38548777e-01 -3.79184812e-01
  -1.51514784e-01 -1.86910965e-02 -2.17475235e-01 -2.31245220e-01
  -3.39995891e-01 -8.61963183e-02 -2.71395802e-01 -2.87099928e-01
  -2.88017958e-01 -7.98495933e-02 -6.93843290e-02 -2.47605622e-01
  -9.69588384e-02 -2.76911318e-01 -5.97078167e-02 -1.92995965e-01
  -5.88311208e-03  7.85090309e-03  1.40384976e-02  1.18539315e-02
   8.15151911e-03 -3.23691661e-03 -5.93251199e-04  1.96517934e-03
   1.15628820e-02 -1.06364992e-02  7.10869301e-03  1.44247422e-02
   1.20078484e-02 -1.55878940e-03 -1.26167946e-02  2.07649497e-03
  -3.16947140e-03  2.04225144e-04  4.77719773e-03  9.59995901e-04]
 [ 9.06255990e-02 -3.06199074e-01 -1.50376428e-02 -5.03645957e-01
   1.22583956e-02 -1.45534635e-01 -1.07086144e-01  1.46627590e-01
   4.66835588e-01  3.27293314e-02 -3.22017729e-01 -3.51380318e-01
  -2.62797028e-01  4.02461737e-02 -1.46436729e-02 -3.86348993e-01
   1.84313357e-01  1.13550268e-01  4.94549647e-02 -1.69570714e-01
  -1.44466847e-01 -2.79550552e-01 -1.38548777e-01 -3.79184812e-01
  -1.51514784e-01 -1.86910965e-02 -2.17475235e-01 -2.31245220e-01
  -3.39995891e-01 -8.61963183e-02 -2.71395802e-01 -2.87099928e-01
  -2.88017958e-01 -7.98495933e-02 -6.93843290e-02 -2.47605622e-01
  -9.69588384e-02 -2.76911318e-01 -5.97078167e-02 -1.92995965e-01
  -9.99591895e-04  4.81818896e-03  1.06880516e-02  1.13489367e-02
   7.88057130e-03 -1.68768092e-04  3.45731108e-03  3.65673797e-03
   8.55167117e-03 -1.13745686e-02  4.39410983e-03  1.23414183e-02
   1.24012586e-02 -9.51835478e-04 -1.03694545e-02  5.94693585e-04
  -1.79778540e-03 -9.54350224e-04 -5.48917684e-04  1.85731426e-03]]
gru_2/gru_cell_2/kernel:0
(20, 60)
[[-1.51357517e-01  8.97993073e-02 -1.98843956e-01 ... -5.49101606e-02
   4.18956839e-02  2.04456225e-01]
 [ 3.82286124e-02 -3.49158235e-02 -1.05029978e-01 ... -4.82157469e-02
   1.44718021e-01  2.76364267e-01]
 [-2.60631535e-02 -2.53622323e-01  1.90945715e-01 ...  1.82522908e-01
   1.38744265e-01 -8.14723074e-02]
 ...
 [ 1.07202888e-01  2.36403331e-01  9.43945646e-02 ... -1.25657588e-01
  -8.33657756e-02  2.19267115e-01]
 [ 1.93502814e-01 -5.88564798e-02  9.22133178e-02 ... -7.36102685e-02
  -1.53163940e-01  3.68429348e-02]
 [ 5.08147068e-02 -9.45139152e-04 -8.48415196e-02 ...  3.62657302e-05
   7.00436831e-02  1.07910655e-01]]
gru_2/gru_cell_2/recurrent_kernel:0
(20, 60)
[[-0.05602242  0.14295323  0.05589275 ... -0.0042602  -0.01345423
  -0.04375785]
 [-0.03848709 -0.12954468  0.09820131 ... -0.03128452 -0.10277667
  -0.10473986]
 [-0.14074555  0.04363997  0.05298319 ... -0.06134129  0.09486887
   0.13495253]
 ...
 [-0.12495864 -0.0205508   0.15796065 ... -0.16978857  0.14492072
   0.05777292]
 [-0.223413    0.0196796  -0.26922485 ...  0.00468154 -0.3709245
   0.16263315]
 [-0.01128358  0.00319821 -0.01644752 ...  0.1075308   0.00832828
   0.21156558]]
gru_2/gru_cell_2/bias:0
(2, 60)
[[-1.7630169e-01  2.0193042e-01  2.1479507e-01 -5.6028508e-02
  -2.8757137e-01 -5.4525161e-01  2.9146814e-01 -1.4143015e-01
   1.6394958e-01 -2.3857984e-01 -4.0871757e-01  1.3319400e-01
  -4.0704012e-01  7.8074977e-02  1.1139430e-01 -7.0680067e-02
  -3.9377728e-01  1.5979959e-02 -1.8673326e-01 -4.4631606e-01
  -6.9001555e-02 -3.1376239e-02  1.3479881e-03 -6.3398674e-02
   2.7510454e-03 -8.0007195e-02 -1.6477165e-01 -2.3100184e-02
  -2.3318118e-01 -1.4860754e-01 -1.2217840e-01 -2.5819308e-01
  -1.1361514e-02 -8.6617507e-02  1.0486836e-02 -1.6743113e-01
  -1.8065488e-01 -2.8940469e-01 -1.9762975e-01 -6.4366788e-01
   3.4714176e-04  5.5022598e-03  2.1539824e-03 -1.4807282e-04
   1.6868900e-03 -1.4883748e-03 -7.9097962e-03  8.4927808e-03
  -9.3319453e-03 -4.0876311e-03 -3.9644381e-03  4.7155125e-03
   2.5547459e-03 -2.6452076e-03  3.2857454e-03  1.3488565e-03
   5.7741441e-04 -3.7943476e-03 -4.3876627e-03 -4.5143405e-04]
 [-1.7630169e-01  2.0193042e-01  2.1479507e-01 -5.6028508e-02
  -2.8757137e-01 -5.4525161e-01  2.9146814e-01 -1.4143015e-01
   1.6394958e-01 -2.3857984e-01 -4.0871757e-01  1.3319400e-01
  -4.0704012e-01  7.8074977e-02  1.1139430e-01 -7.0680067e-02
  -3.9377728e-01  1.5979959e-02 -1.8673326e-01 -4.4631606e-01
  -6.9001555e-02 -3.1376239e-02  1.3479881e-03 -6.3398674e-02
   2.7510454e-03 -8.0007195e-02 -1.6477165e-01 -2.3100184e-02
  -2.3318118e-01 -1.4860754e-01 -1.2217840e-01 -2.5819308e-01
  -1.1361514e-02 -8.6617507e-02  1.0486836e-02 -1.6743113e-01
  -1.8065488e-01 -2.8940469e-01 -1.9762975e-01 -6.4366788e-01
   2.4680274e-03  4.7845687e-04 -1.2432558e-03  1.4066002e-03
  -1.7548341e-03  2.7520233e-03 -2.1077602e-03  3.9183134e-03
  -8.2292110e-03  1.2683067e-03 -1.9912550e-03  1.6256553e-03
  -9.5691718e-04  8.8096689e-04 -1.0268884e-03  6.8575256e-03
  -1.5547816e-03  2.5233012e-03 -2.5328957e-03 -4.5285592e-04]]
gru_3/gru_cell_3/kernel:0
(20, 60)
[[ 0.04753191  0.25248393 -0.02400509 ... -0.16284114  0.00032132
   0.01922882]
 [ 0.20233509  0.24392523  0.03235278 ... -0.10869016  0.17186455
   0.08974885]
 [-0.2855479  -0.09176293 -0.11953988 ...  0.08376886  0.08725666
  -0.11494624]
 ...
 [ 0.26069504  0.10335508 -0.06018037 ... -0.16905943 -0.06781746
  -0.09862687]
 [-0.01189263 -0.07044525 -0.1342518  ... -0.08982998  0.18218626
   0.08039127]
 [-0.19334218  0.09773722 -0.07959948 ... -0.19808574 -0.1936591
   0.05789733]]
gru_3/gru_cell_3/recurrent_kernel:0
(20, 60)
[[-0.05693423 -0.15949453 -0.11921431 ...  0.00312016  0.31229997
   0.0758005 ]
 [-0.18151009  0.15078846  0.12233357 ...  0.06553546  0.12071615
  -0.19364767]
 [-0.05595106 -0.125335   -0.20091264 ...  0.1389191   0.02331263
   0.10792348]
 ...
 [ 0.05821208 -0.02732718  0.06846114 ... -0.16745298 -0.14718221
   0.07939488]
 [ 0.04729518  0.16761611 -0.14605398 ... -0.16402857  0.12385928
  -0.23789868]
 [ 0.12951295  0.19856045  0.12153437 ...  0.1000182   0.14584212
  -0.3384459 ]]
gru_3/gru_cell_3/bias:0
(2, 60)
[[-0.582318   -0.25373548 -0.30859214  0.19478063  0.12241191 -0.6100007
  -0.7089829  -0.5140934  -0.185862   -0.3082778  -0.5178264  -0.83796006
   0.18233156  0.02349044 -0.65698814 -0.29669517  0.08163445 -0.13127908
  -0.21732305 -0.2232185  -0.10342524 -0.15420863 -0.2249776  -0.26591805
  -0.01567746 -0.28079212  0.00157508 -0.07948826 -0.12567076 -0.10813369
  -0.18416084 -0.06528178 -0.04932457 -0.12963077 -0.40803343 -0.2374748
  -0.13982591 -0.08010107 -0.07222653 -0.12541448 -0.0085372  -0.00667262
  -0.00633138 -0.00985768 -0.00701317 -0.01119998 -0.0088302   0.01197365
   0.0069977  -0.0105664  -0.01018907 -0.0130437   0.00906187  0.01201407
  -0.00884913 -0.01263291 -0.01025959  0.00621203  0.01329357 -0.0037812 ]
 [-0.582318   -0.25373548 -0.30859214  0.19478063  0.12241191 -0.6100007
  -0.7089829  -0.5140934  -0.185862   -0.3082778  -0.5178264  -0.83796006
   0.18233156  0.02349044 -0.65698814 -0.29669517  0.08163445 -0.13127908
  -0.21732305 -0.2232185  -0.10342524 -0.15420863 -0.2249776  -0.26591805
  -0.01567746 -0.28079212  0.00157508 -0.07948826 -0.12567076 -0.10813369
  -0.18416084 -0.06528178 -0.04932457 -0.12963077 -0.40803343 -0.2374748
  -0.13982591 -0.08010107 -0.07222653 -0.12541448 -0.01802764 -0.00762358
  -0.0116779  -0.00936176 -0.00836217 -0.01392416 -0.01037333  0.01426443
   0.0104302  -0.00704392 -0.00748661 -0.01890984  0.01210213  0.01032382
  -0.00733875 -0.01243642 -0.0067545   0.00859659  0.01944671 -0.00578326]]
dense/kernel:0
(20, 1)
[[-0.2756071 ]
 [-0.3143892 ]
 [-0.32325768]
 [-0.21123445]
 [-0.30749297]
 [-0.2455827 ]
 [-0.37479874]
 [ 0.28188413]
 [ 0.31853393]
 [-0.18761441]
 [-0.2597888 ]
 [-0.18458712]
 [ 0.2028892 ]
 [ 0.1930255 ]
 [-0.22238111]
 [-0.2288739 ]
 [-0.15079717]
 [ 0.30714047]
 [ 0.16079907]
 [-0.2847439 ]]
dense/bias:0
(1,)
[0.24669948]
