gru/gru_cell/kernel:0
(1, 60)
[[-0.40640628 -0.84064996 -0.50926906 -1.2376436  -0.5414173  -0.6513447
  -0.8495826  -0.32029998 -0.9017808  -0.87367666 -0.81247663 -0.8121172
  -1.3036987  -1.0377508  -0.31055102 -0.72135365 -1.146259   -0.9471068
  -0.26942545  0.31068665  0.10166313 -0.23784684  0.14060117  0.05579024
  -0.11367584 -0.208178    0.15486054 -0.00600906 -0.4232199   0.05266933
   0.22323418 -0.20672803 -0.20230219 -0.41063893 -0.18245444 -0.12365683
  -0.09489864  0.07110827  0.10615429  0.11144724  0.23725468 -0.16781108
  -0.28398836  0.22181168  0.13148011 -0.2318414  -0.2342117   0.17023434
   0.15297167  0.09663299 -0.22389074  0.164529   -0.24181221 -0.14603633
   0.24396726 -0.25008076 -0.30512702  0.2753145  -0.05261006  0.01418658]]
gru/gru_cell/recurrent_kernel:0
(20, 60)
[[-0.5233939  -0.24470878 -0.39849964 ... -0.1464918  -0.11494503
   0.16487144]
 [ 0.07102438  0.35619953  0.07720892 ...  0.08834475  0.16202992
  -0.29382738]
 [ 0.11762881  0.1248885   0.3146049  ...  0.01284413  0.2671549
  -0.06028564]
 ...
 [-0.26348892 -0.3624815  -0.39097953 ...  0.00548121 -0.29656988
   0.29160896]
 [ 0.1587803   0.07917279  0.1827325  ...  0.21650828 -0.1713509
  -0.12557814]
 [-0.36900663 -0.35047147 -0.194678   ... -0.0491879  -0.02142751
  -0.16120143]]
gru/gru_cell/bias:0
(2, 60)
[[-1.0778929e+00 -1.2843997e+00 -1.3616322e+00 -1.6935794e+00
  -1.2811652e+00 -1.5985398e+00 -1.5739775e+00 -1.1193676e+00
  -1.6837363e+00 -1.1956284e+00 -1.3266815e+00 -1.4906952e+00
  -1.7436829e+00 -1.4225106e+00 -9.6771187e-01 -1.7217271e+00
  -1.6515869e+00 -1.5713267e+00 -7.4787366e-01  9.2136234e-02
  -5.1967256e-02 -1.3100390e-01  1.9188253e-02  1.3034491e-01
  -2.4230713e-01  2.7954848e-02 -5.7426764e-04 -6.7991793e-02
  -1.7511848e-01 -1.7986639e-01  1.5275019e-02 -1.6812199e-01
   5.3103574e-02 -1.7273918e-01 -1.6399724e-02  8.2124352e-02
   7.8475259e-02  1.6789502e-02 -1.6721573e-02  7.6190904e-02
  -4.4949874e-02  2.2460464e-02  4.9423818e-02 -3.5566512e-02
  -2.5152693e-02  3.9156128e-02  4.1387830e-02 -2.6375189e-02
  -1.9260032e-02 -2.1305198e-02  3.6106300e-02 -4.0159717e-02
   3.9328553e-02  2.3636824e-02 -3.9424084e-02  4.1308068e-02
   5.4603655e-02 -4.6153788e-02  1.0082070e-02 -5.7045743e-03]
 [-1.0778929e+00 -1.2843997e+00 -1.3616322e+00 -1.6935794e+00
  -1.2811652e+00 -1.5985398e+00 -1.5739775e+00 -1.1193676e+00
  -1.6837363e+00 -1.1956284e+00 -1.3266815e+00 -1.4906952e+00
  -1.7436829e+00 -1.4225106e+00 -9.6771187e-01 -1.7217271e+00
  -1.6515869e+00 -1.5713267e+00 -7.4787366e-01  9.2136234e-02
  -5.1967256e-02 -1.3100390e-01  1.9188253e-02  1.3034491e-01
  -2.4230713e-01  2.7954848e-02 -5.7426764e-04 -6.7991793e-02
  -1.7511848e-01 -1.7986639e-01  1.5275019e-02 -1.6812199e-01
   5.3103574e-02 -1.7273918e-01 -1.6399724e-02  8.2124352e-02
   7.8475259e-02  1.6789502e-02 -1.6721573e-02  7.6190904e-02
  -3.3754099e-02  2.1782301e-02  4.4381823e-02 -3.4204956e-02
  -2.1233773e-02  3.8950149e-02  3.2029755e-02 -2.1193750e-02
  -2.4561808e-02 -2.1149375e-02  3.4295280e-02 -3.3589967e-02
   3.9017912e-02  2.1972267e-02 -3.6267523e-02  3.9549720e-02
   5.0575081e-02 -4.4401411e-02  1.2628931e-02 -6.0106902e-03]]
gru_1/gru_cell_1/kernel:0
(20, 60)
[[-0.05171683 -0.07791328 -0.02243863 ...  0.04100332 -0.20297721
  -0.01136726]
 [-0.09501147  0.19768521 -0.16646038 ... -0.00098166  0.11400811
   0.02943633]
 [-0.00108914  0.12438807  0.17761335 ... -0.0462016   0.28919435
  -0.03712847]
 ...
 [ 0.22819066 -0.10756892 -0.09507387 ... -0.00275293 -0.04209791
  -0.15469956]
 [-0.3478223  -0.08917708 -0.09009577 ...  0.18209971 -0.08289289
  -0.0757264 ]
 [ 0.4279578   0.01081443  0.3193465  ... -0.06105995 -0.02556448
   0.00933073]]
gru_1/gru_cell_1/recurrent_kernel:0
(20, 60)
[[-0.25804174 -0.01226604 -0.35626715 ... -0.14266525 -0.10175326
  -0.07754921]
 [-0.01174652 -0.06993495  0.13651355 ... -0.16114992  0.12461529
  -0.06160466]
 [ 0.11532873  0.25997505 -0.10002833 ... -0.01916682  0.08072793
   0.07691967]
 ...
 [-0.0019323   0.15028493 -0.07296611 ... -0.01781572 -0.02988999
  -0.02301421]
 [-0.22128946  0.1258602  -0.0619473  ...  0.17161915 -0.13207223
  -0.12062048]
 [ 0.07934077  0.3175489  -0.08058787 ... -0.06087057  0.12645262
   0.01893707]]
gru_1/gru_cell_1/bias:0
(2, 60)
[[ 3.00113559e-01  2.62760520e-01  4.19618666e-01  2.21633211e-01
   3.60303223e-01  3.08700621e-01  2.64743954e-01  5.36962986e-01
   3.94071817e-01  3.36800277e-01  4.65362847e-01  1.67582884e-01
   3.21522593e-01  4.30257410e-01  4.04738396e-01  3.59899014e-01
   3.93495291e-01  5.45114815e-01  2.51214206e-01  3.11145961e-01
  -1.06572762e-01 -2.98708845e-02 -5.31344175e-01 -3.40477750e-02
  -3.77932400e-01 -6.64468229e-01 -2.16400415e-01 -3.18398058e-01
  -1.98907986e-01 -1.05890483e-01 -3.07596594e-01  3.74057633e-03
   1.07552167e-02 -6.32100701e-02 -2.84608364e-01 -1.03705786e-01
  -2.50570446e-01 -4.00693864e-01 -4.11291629e-01 -4.10340637e-01
   8.29057419e-04 -4.47232043e-03 -1.36584206e-03 -1.30012352e-03
  -1.13641378e-04 -9.50114685e-04 -3.44236105e-05 -2.65450263e-03
  -1.78635726e-03 -4.57437383e-03 -2.05107359e-03  1.59000000e-03
   2.12631002e-03 -1.15699622e-05  3.13386065e-03 -6.07249048e-03
  -8.60042492e-05 -2.91709788e-04 -2.04754760e-03  3.06168757e-03]
 [ 3.00113559e-01  2.62760520e-01  4.19618666e-01  2.21633211e-01
   3.60303223e-01  3.08700621e-01  2.64743954e-01  5.36962986e-01
   3.94071817e-01  3.36800277e-01  4.65362847e-01  1.67582884e-01
   3.21522593e-01  4.30257410e-01  4.04738396e-01  3.59899014e-01
   3.93495291e-01  5.45114815e-01  2.51214206e-01  3.11145961e-01
  -1.06572762e-01 -2.98708845e-02 -5.31344175e-01 -3.40477750e-02
  -3.77932400e-01 -6.64468229e-01 -2.16400415e-01 -3.18398058e-01
  -1.98907986e-01 -1.05890483e-01 -3.07596594e-01  3.74057633e-03
   1.07552167e-02 -6.32100701e-02 -2.84608364e-01 -1.03705786e-01
  -2.50570446e-01 -4.00693864e-01 -4.11291629e-01 -4.10340637e-01
   6.49801735e-03 -3.50051257e-03 -5.74800512e-03  2.40191445e-03
   2.93842261e-03  1.09470997e-03  6.24803267e-03  2.24747160e-03
  -9.94996866e-04  6.31709537e-03 -8.88119824e-03 -8.25771931e-05
  -1.03468960e-03  4.20544669e-03  1.25209382e-03 -2.50681624e-04
  -7.32712261e-03  2.47382117e-03  7.20007019e-03  6.22673379e-03]]
dense/kernel:0
(20, 1)
[[-0.2041985 ]
 [ 0.15721293]
 [-0.20683125]
 [-0.12606509]
 [-0.18831699]
 [ 0.12796837]
 [-0.18592025]
 [-0.22401258]
 [-0.15667412]
 [-0.13902809]
 [-0.19463316]
 [ 0.10888343]
 [ 0.1180846 ]
 [-0.14175059]
 [ 0.11911701]
 [-0.17822854]
 [ 0.19429219]
 [-0.20750394]
 [-0.23554212]
 [-0.23932792]]
dense/bias:0
(1,)
[0.24846096]
