gru/gru_cell/kernel:0
(1, 60)
[[-0.21893941  0.22103915 -0.38416156 -1.3739258  -0.7346696  -0.79965097
  -1.2189144  -0.8175279  -0.8459131   0.18000638 -0.594956   -0.92691934
  -1.4345927  -1.0378572  -0.5679343  -0.8689656  -1.4270396  -1.058663
   0.02639628 -0.88187057  0.12126633 -0.00407397  0.08757081 -0.07059669
  -0.07562499 -0.20085587  0.13751957 -0.07461957 -0.3158923   0.14412433
   0.19672008 -0.12719615 -0.19148609 -0.32314083 -0.31006405 -0.1527324
  -0.09942406  0.0825385   0.05082349 -0.15229626  0.24032103 -0.16053088
  -0.27822307  0.24373852  0.14545213 -0.24664988 -0.24920405  0.21090876
   0.18233098  0.08962959 -0.23484686  0.21365072 -0.25359502 -0.15648414
   0.3146921  -0.2555886  -0.33452412  0.28826165 -0.04179442 -0.18645333]]
gru/gru_cell/recurrent_kernel:0
(20, 60)
[[-0.42826518  0.23040932 -0.35295957 ... -0.11946361 -0.09397764
   0.07959323]
 [-0.02503208 -0.09953794  0.04749521 ...  0.16246077  0.14718953
  -0.3012948 ]
 [ 0.08820593 -0.26537344  0.29157016 ...  0.06399596  0.27805042
   0.10254645]
 ...
 [-0.2135652   0.01153868 -0.3644234  ...  0.04507548 -0.28679937
   0.16112572]
 [-0.13715614 -0.36359018 -0.09474132 ...  0.19407447 -0.37915117
  -0.0719768 ]
 [ 0.02668946 -0.30805746  0.2765555  ...  0.40602216 -0.05784063
  -0.17992365]]
gru/gru_cell/bias:0
(2, 60)
[[-9.6171016e-01  6.8431163e-01 -1.2752626e+00 -1.8229167e+00
  -1.6388825e+00 -1.9296457e+00 -2.1524708e+00 -1.8862969e+00
  -1.7638471e+00  7.3295325e-01 -1.1625593e+00 -1.7723736e+00
  -1.9687452e+00 -1.3616761e+00 -1.5303568e+00 -1.8735515e+00
  -2.1468811e+00 -1.7663050e+00 -1.7583439e-01 -1.8830563e+00
  -1.2150058e-01  1.3233981e-01 -7.4057929e-02  2.6107062e-02
  -1.0546131e-01  5.0848749e-02  2.5602817e-03  1.8804239e-03
  -1.1312497e-01  9.7863011e-02 -8.1098355e-02 -6.9288192e-03
   5.8692459e-02 -2.9774679e-02  6.6908062e-03  3.3596646e-02
   8.3581850e-02  2.6998257e-02 -1.6813198e-02 -1.6661426e-02
  -4.6122707e-02  2.3508606e-02  3.9227191e-02 -4.0669911e-02
  -2.3487287e-02  3.8107712e-02  4.4156794e-02 -3.8583215e-02
  -2.7986271e-02 -1.4474393e-02  4.2991590e-02 -3.5576146e-02
   3.9719224e-02  2.2670902e-02 -4.7269452e-02  4.1157763e-02
   5.3436406e-02 -4.7963131e-02  4.6959515e-03  3.3172429e-02]
 [-9.6171016e-01  6.8431163e-01 -1.2752626e+00 -1.8229167e+00
  -1.6388825e+00 -1.9296457e+00 -2.1524708e+00 -1.8862969e+00
  -1.7638471e+00  7.3295325e-01 -1.1625593e+00 -1.7723736e+00
  -1.9687452e+00 -1.3616761e+00 -1.5303568e+00 -1.8735515e+00
  -2.1468811e+00 -1.7663050e+00 -1.7583439e-01 -1.8830563e+00
  -1.2150058e-01  1.3233981e-01 -7.4057929e-02  2.6107062e-02
  -1.0546131e-01  5.0848749e-02  2.5602817e-03  1.8804239e-03
  -1.1312497e-01  9.7863011e-02 -8.1098355e-02 -6.9288192e-03
   5.8692459e-02 -2.9774679e-02  6.6908062e-03  3.3596646e-02
   8.3581850e-02  2.6998257e-02 -1.6813198e-02 -1.6661426e-02
  -3.6166027e-02  2.4029275e-02  3.2501068e-02 -3.9187957e-02
  -1.8895570e-02  3.9532136e-02  3.7185196e-02 -3.4129336e-02
  -3.2821599e-02 -1.5257193e-02  3.8379885e-02 -3.0423084e-02
   3.9713793e-02  1.9311108e-02 -4.4135615e-02  4.0490147e-02
   5.0619777e-02 -4.5209561e-02  9.2715472e-03  2.9752271e-02]]
gru_1/gru_cell_1/kernel:0
(20, 60)
[[-0.296839   -0.48282677 -0.23554271 ...  0.20046318 -0.04520016
   0.08162361]
 [ 0.00740641  0.36919737  0.05705711 ... -0.10848624  0.03345996
  -0.00918743]
 [-0.24665208 -0.05822339  0.2397909  ... -0.2790725   0.09077357
  -0.03192654]
 ...
 [ 0.16273072 -0.11083684 -0.29906783 ...  0.17698936  0.17586318
  -0.22418207]
 [-0.25353095 -0.08457292 -0.01522249 ...  0.12069951 -0.18716885
  -0.10659777]
 [ 0.34662727  0.13252585  0.28383714 ... -0.11021203 -0.03683535
   0.19749546]]
gru_1/gru_cell_1/recurrent_kernel:0
(20, 60)
[[-0.20278831 -0.19864535 -0.4893219  ... -0.17886436 -0.0697832
   0.05375604]
 [-0.08269805 -0.05966672  0.14256155 ... -0.14540918  0.09140328
  -0.14962131]
 [ 0.27316114  0.30631033  0.00681227 ... -0.02842852  0.05312178
  -0.01520346]
 ...
 [-0.04872022 -0.12370145 -0.12892963 ...  0.03043617 -0.02233988
   0.14834869]
 [-0.16208188 -0.0366747  -0.15326443 ... -0.03816494 -0.29543018
  -0.01688095]
 [ 0.2781278   0.36556032  0.1547809  ...  0.00457999  0.1728005
  -0.06023508]]
gru_1/gru_cell_1/bias:0
(2, 60)
[[-4.5268130e-01 -3.8537323e-01 -4.5493123e-01 -4.6983442e-01
  -6.5826011e-01 -4.5019972e-01 -3.9015055e-01 -5.9111160e-01
  -7.6762564e-02 -5.3063583e-01 -3.1517747e-01 -6.6420925e-01
  -3.0321679e-01 -6.7089230e-01 -5.3465319e-01  8.9433283e-02
  -4.2542350e-01 -4.7085369e-01 -3.6330822e-01 -5.2613372e-01
  -9.0900414e-02  7.6826196e-03  3.9942330e-03 -2.6378283e-01
  -1.7524037e-01 -8.5054189e-02 -3.0759126e-01 -1.3826664e-01
  -3.8569656e-01 -1.8868180e-01  3.5897002e-03 -7.4024215e-02
  -2.5473773e-01 -5.5249557e-02 -4.5804176e-02 -1.3964452e-01
  -1.0730105e-01 -2.2561602e-01 -1.4896859e-01 -2.1340245e-01
   1.8086804e-04  3.7131520e-04  6.2409294e-05  6.3832761e-03
   5.4440880e-04  2.5810828e-03 -3.9511011e-03  4.7856746e-03
  -1.4681027e-03 -3.7573505e-04 -7.5066963e-04  1.1656258e-03
   1.9204136e-03  5.8600894e-04 -2.2813310e-03  3.8293938e-03
   1.8273141e-03 -3.9690101e-04 -4.2680930e-03  9.6543290e-04]
 [-4.5268130e-01 -3.8537323e-01 -4.5493123e-01 -4.6983442e-01
  -6.5826011e-01 -4.5019972e-01 -3.9015055e-01 -5.9111160e-01
  -7.6762564e-02 -5.3063583e-01 -3.1517747e-01 -6.6420925e-01
  -3.0321679e-01 -6.7089230e-01 -5.3465319e-01  8.9433283e-02
  -4.2542350e-01 -4.7085369e-01 -3.6330822e-01 -5.2613372e-01
  -9.0900414e-02  7.6826196e-03  3.9942330e-03 -2.6378283e-01
  -1.7524037e-01 -8.5054189e-02 -3.0759126e-01 -1.3826664e-01
  -3.8569656e-01 -1.8868180e-01  3.5897002e-03 -7.4024215e-02
  -2.5473773e-01 -5.5249557e-02 -4.5804176e-02 -1.3964452e-01
  -1.0730105e-01 -2.2561602e-01 -1.4896859e-01 -2.1340245e-01
   3.7380413e-03 -4.0719262e-03 -9.0076658e-04  6.8844515e-03
   9.3248702e-04  5.4667811e-03 -3.3937502e-04  5.1554022e-03
  -1.9536661e-03  3.5170000e-03 -1.7454352e-03 -2.6947190e-04
  -7.2749914e-04  1.9617567e-03  2.8264974e-04  3.0531106e-03
   1.0360641e-03  9.0061902e-04 -1.0532947e-03  4.8112025e-04]]
gru_2/gru_cell_2/kernel:0
(20, 60)
[[-0.15932149  0.19993414 -0.19342685 ...  0.09864645  0.1771747
   0.26041752]
 [-0.0480537  -0.13557306  0.07891462 ... -0.16540767  0.0182475
   0.06580944]
 [ 0.04316624 -0.353492    0.19224454 ...  0.04095387 -0.03432367
  -0.17050354]
 ...
 [ 0.15256485  0.28588238  0.17611879 ... -0.13644895 -0.06164284
   0.21466784]
 [ 0.27576336 -0.10540038 -0.10711839 ... -0.01892348  0.02661115
   0.09631958]
 [-0.34829155 -0.10600022 -0.04788974 ... -0.1092754   0.02920033
  -0.01870638]]
gru_2/gru_cell_2/recurrent_kernel:0
(20, 60)
[[ 0.10044347  0.18612061  0.01729517 ... -0.06773666  0.05007359
   0.06263108]
 [-0.03170266 -0.01676157  0.02945595 ...  0.02752159 -0.06450745
  -0.04131459]
 [-0.18579985  0.02047788  0.06687224 ... -0.06405248 -0.26045868
   0.06081031]
 ...
 [-0.1368759  -0.02368974  0.07898618 ... -0.01846806  0.18449646
   0.07102409]
 [-0.12446877  0.04796318 -0.2669256  ... -0.02595441  0.14902513
   0.13119394]
 [ 0.167166    0.09162552 -0.0165094  ...  0.03279864  0.04487136
   0.10133728]]
gru_2/gru_cell_2/bias:0
(2, 60)
[[ 6.25388026e-01  3.40606511e-01  3.71157378e-01  7.78104842e-01
   3.83339763e-01  6.32229745e-01  5.28440118e-01  1.74615607e-01
   2.91225642e-01  7.04181254e-01  5.97069085e-01  4.48728234e-01
   5.25952935e-01  5.18615961e-01  7.04147995e-01  3.69692892e-01
   6.18928254e-01  3.88424903e-01  4.36501980e-01  4.53415334e-01
  -5.41123331e-01 -2.04900622e-01 -6.68476284e-01 -1.38052136e-01
  -5.75089931e-01 -5.32826185e-01 -5.39231718e-01 -2.25181550e-01
  -1.80714671e-02 -3.09982210e-01 -1.32298514e-01 -1.93992928e-01
  -2.60679543e-01 -3.42145741e-01 -2.19756603e-01 -4.75544930e-01
  -9.79426876e-02 -2.95246392e-01 -9.48247164e-02 -1.32006973e-01
   1.21370552e-03  1.37823366e-03 -2.90613715e-03  2.36016046e-03
  -1.12694397e-03  1.39620027e-03 -2.02558527e-04 -8.21728841e-04
  -2.21546926e-03 -1.00210321e-03 -3.72795948e-05  5.19128982e-03
   1.66574481e-03 -5.85590897e-04  3.64150293e-03  7.17982417e-03
   1.64139771e-03  2.33467948e-03  1.01204275e-03  1.73866237e-03]
 [ 6.25388026e-01  3.40606511e-01  3.71157378e-01  7.78104842e-01
   3.83339763e-01  6.32229745e-01  5.28440118e-01  1.74615607e-01
   2.91225642e-01  7.04181254e-01  5.97069085e-01  4.48728234e-01
   5.25952935e-01  5.18615961e-01  7.04147995e-01  3.69692892e-01
   6.18928254e-01  3.88424903e-01  4.36501980e-01  4.53415334e-01
  -5.41123331e-01 -2.04900622e-01 -6.68476284e-01 -1.38052136e-01
  -5.75089931e-01 -5.32826185e-01 -5.39231718e-01 -2.25181550e-01
  -1.80714671e-02 -3.09982210e-01 -1.32298514e-01 -1.93992928e-01
  -2.60679543e-01 -3.42145741e-01 -2.19756603e-01 -4.75544930e-01
  -9.79426876e-02 -2.95246392e-01 -9.48247164e-02 -1.32006973e-01
   5.13469568e-04 -1.97346974e-03 -3.49395024e-03 -2.22877279e-05
   1.82892871e-03 -4.09337087e-03  1.19786215e-04  2.61225342e-03
   5.48454467e-03  4.22529364e-03  2.55051604e-03  7.16624595e-03
   2.25466071e-03 -4.97034146e-03  3.39730177e-03  2.58670957e-03
  -3.01635079e-03  4.44056513e-03 -2.31402810e-03 -1.68640306e-03]]
dense/kernel:0
(20, 1)
[[ 0.16435987]
 [ 0.23120873]
 [-0.1786817 ]
 [-0.13288175]
 [-0.18495078]
 [-0.24701521]
 [-0.24432687]
 [-0.24834447]
 [-0.13642083]
 [ 0.27225965]
 [-0.22675419]
 [-0.164641  ]
 [ 0.18161967]
 [-0.3015461 ]
 [-0.12841287]
 [ 0.29674524]
 [-0.2673654 ]
 [ 0.24257204]
 [ 0.14781058]
 [ 0.20019482]]
dense/bias:0
(1,)
[0.24521315]
